{"learner":{"attributes":{"best_iteration":"50","best_score":"0.3838080073062757"},"feature_names":[],"feature_types":[],"gradient_booster":{"model":{"gbtree_model_param":{"num_parallel_tree":"1","num_trees":"101"},"iteration_indptr":[0,1,2,3,4,5,6,7,8,9,10,11,12,13,14,15,16,17,18,19,20,21,22,23,24,25,26,27,28,29,30,31,32,33,34,35,36,37,38,39,40,41,42,43,44,45,46,47,48,49,50,51,52,53,54,55,56,57,58,59,60,61,62,63,64,65,66,67,68,69,70,71,72,73,74,75,76,77,78,79,80,81,82,83,84,85,86,87,88,89,90,91,92,93,94,95,96,97,98,99,100,101],"tree_info":[0,0,0,0,0,0,0,0,0,0,0,0,0,0,0,0,0,0,0,0,0,0,0,0,0,0,0,0,0,0,0,0,0,0,0,0,0,0,0,0,0,0,0,0,0,0,0,0,0,0,0,0,0,0,0,0,0,0,0,0,0,0,0,0,0,0,0,0,0,0,0,0,0,0,0,0,0,0,0,0,0,0,0,0,0,0,0,0,0,0,0,0,0,0,0,0,0,0,0,0,0],"trees":[{"base_weights":[-9.0729855E-3,1.3242053E0,-9.152762E-1,2.1209772E0,3.2496107E-1,-1.0801181E0,4.4202313E-1,1.748267E-1,6.748384E-1,8.389202E-1,-1.0346606E0,-2.3282064E-1,-1.1385379E0,9.820088E-1,-6.789731E-1,1.278352E-1,-3.3932766E-1,9.3964475E-1,-3.158521E-2,2.7787401E-3,-9.225297E-2,-6.5660524E-1,5.261527E-2,-1.1700189E0,8.845895E-3,1.4982814E0,-6.5949164E-2,2.7787401E-3,-7.588303E-2,-7.14017E-2,3.714269E-2,1.011382E0,8.845895E-3,-1.0894433E-2,-7.588303E-2,-8.9351535E-2,2.7787401E-3,1.3267773E-1,3.7088867E-2,1.373325E-1,5.6946505E-2],"categories":[],"categories_nodes":[],"categories_segments":[],"categories_sizes":[],"default_left":[0,0,0,0,0,0,0,0,0,0,0,0,0,0,0,0,0,0,0,0,0,0,0,0,0,0,0,0,0,0,0,0,0,0,0,0,0,0,0,0,0],"id":0,"left_children":[1,3,5,7,9,11,13,-1,15,17,19,21,23,25,27,-1,29,31,-1,-1,-1,33,-1,35,-1,37,-1,-1,-1,-1,-1,39,-1,-1,-1,-1,-1,-1,-1,-1,-1],"loss_changes":[1.738697E2,4.5674904E1,1.964486E1,8.21347E0,1.9746117E1,3.530571E0,6.712199E0,0E0,6.314857E0,2.9539948E0,1.6910858E0,2.9168468E0,2.9653397E0,8.187431E0,9.520657E-1,0E0,2.3130634E0,9.9917793E-1,0E0,0E0,0E0,7.218838E-1,0E0,1.8422623E0,0E0,7.467394E-1,0E0,0E0,0E0,0E0,0E0,2.1885433E0,0E0,0E0,0E0,0E0,0E0,0E0,0E0,0E0,0E0],"parents":[2147483647,0,0,1,1,2,2,3,3,4,4,5,5,6,6,8,8,9,9,10,10,11,11,12,12,13,13,14,14,16,16,17,17,21,21,23,23,25,25,31,31],"right_children":[2,4,6,8,10,12,14,-1,16,18,20,22,24,26,28,-1,30,32,-1,-1,-1,34,-1,36,-1,38,-1,-1,-1,-1,-1,40,-1,-1,-1,-1,-1,-1,-1,-1,-1],"split_conditions":[1.452127E-1,3E0,5.5E1,1E0,2.2525E1,4.2E1,9.7E1,1.748267E-1,2.85E1,5.5635244E-1,1.23E2,6.33583E1,6.6335243E-1,9.10792E1,2.85E1,1.278352E-1,2.7E1,2.1E1,-3.158521E-2,2.7787401E-3,-9.225297E-2,3.1275E1,5.261527E-2,5.838974E-1,8.845895E-3,4.3E1,-6.5949164E-2,2.7787401E-3,-7.588303E-2,-7.14017E-2,3.714269E-2,7E0,8.845895E-3,-1.0894433E-2,-7.588303E-2,-8.9351535E-2,2.7787401E-3,1.3267773E-1,3.7088867E-2,1.373325E-1,5.6946505E-2],"split_indices":[82,1,7,2,6,7,7,0,3,74,0,6,208,6,3,0,6,6,0,0,0,6,0,108,0,3,0,0,0,0,0,3,0,0,0,0,0,0,0,0,0],"split_type":[0,0,0,0,0,0,0,0,0,0,0,0,0,0,0,0,0,0,0,0,0,0,0,0,0,0,0,0,0,0,0,0,0,0,0,0,0,0,0,0,0],"sum_hessian":[1.4190239E2,5.7233967E1,8.466843E1,3.1218527E1,2.6015438E1,7.5681274E1,8.987151E0,2.672495E1,4.4935756E0,1.9156822E1,6.858616E0,5.203088E0,7.047819E1,6.1491036E0,2.838048E0,1.8920319E0,2.601544E0,1.7974302E1,1.1825199E0,1.1825199E0,5.676096E0,3.7840638E0,1.419024E0,6.882266E1,1.655528E0,4.9665837E0,1.1825199E0,1.1825199E0,1.655528E0,1.419024E0,1.1825199E0,1.6318775E1,1.655528E0,2.128536E0,1.655528E0,6.7640144E1,1.1825199E0,3.311056E0,1.655528E0,2.3650398E0,1.3953735E1],"tree_param":{"num_deleted":"0","num_feature":"209","num_nodes":"41","size_leaf_vector":"1"}},{"base_weights":[-7.795983E-3,1.2074689E0,-8.63341E-1,1.9117439E0,3.0187184E-1,-1.0218362E0,4.089268E-1,1.5683965E-1,6.364912E-1,7.7497697E-1,-9.855908E-1,-2.2184645E-1,-1.077926E0,9.1118836E-1,-6.52563E-1,1.1943475E-1,-3.2505333E-1,8.68192E-1,-3.0430917E-2,2.6648557E-3,-1.1756405E0,-6.305674E-1,4.9945846E-2,-1.108474E0,8.421158E-3,1.3892679E0,-6.385148E-2,-7.441567E-2,4.5941155E-3,-6.9001146E-2,3.546678E-2,9.2514974E-1,4.4684618E-4,-2.8233042E-2,-9.578147E-2,-7.452805E-2,-8.940384E-3,-8.468771E-2,2.6648557E-3,1.2239077E-1,3.5164878E-2,8.566931E-2,3.6589522E-2],"categories":[],"categories_nodes":[],"categories_segments":[],"categories_sizes":[],"default_left":[0,0,0,0,0,0,0,0,0,0,0,0,0,0,0,0,0,0,0,0,0,0,0,0,0,0,0,0,0,0,0,0,0,0,0,0,0,0,0,0,0,0,0],"id":1,"left_children":[1,3,5,7,9,11,13,-1,15,17,19,21,23,25,27,-1,29,31,-1,-1,33,35,-1,37,-1,39,-1,-1,-1,-1,-1,41,-1,-1,-1,-1,-1,-1,-1,-1,-1,-1,-1],"loss_changes":[1.4917035E2,3.722956E1,1.7395084E1,6.257004E0,1.7282661E1,3.1330109E0,5.947775E0,0E0,5.5989037E0,2.5966234E0,1.5414824E0,2.6634874E0,2.6684113E0,7.2775807E0,9.8393095E-1,0E0,2.137688E0,9.3831825E-1,0E0,0E0,4.9861908E-2,7.6313543E-1,0E0,1.657402E0,0E0,5.9022045E-1,0E0,0E0,0E0,0E0,0E0,1.1536331E0,0E0,0E0,0E0,0E0,0E0,0E0,0E0,0E0,0E0,0E0,0E0],"parents":[2147483647,0,0,1,1,2,2,3,3,4,4,5,5,6,6,8,8,9,9,10,10,11,11,12,12,13,13,14,14,16,16,17,17,20,20,21,21,23,23,25,25,31,31],"right_children":[2,4,6,8,10,12,14,-1,16,18,20,22,24,26,28,-1,30,32,-1,-1,34,36,-1,38,-1,40,-1,-1,-1,-1,-1,42,-1,-1,-1,-1,-1,-1,-1,-1,-1,-1,-1],"split_conditions":[1.452127E-1,3E0,5.5E1,1E0,2.2525E1,4.2E1,9.7E1,1.5683965E-1,2.85E1,5.5635244E-1,1.23E2,6.33583E1,6.6335243E-1,9.10792E1,3.675E1,1.1943475E-1,2.7E1,5.140641E-1,-3.0430917E-2,2.6648557E-3,7E0,3.1396648E-1,4.9945846E-2,5.838974E-1,8.421158E-3,4.3E1,-6.385148E-2,-7.441567E-2,4.5941155E-3,-6.9001146E-2,3.546678E-2,5.3099376E-1,4.4684618E-4,-2.8233042E-2,-9.578147E-2,-7.452805E-2,-8.940384E-3,-8.468771E-2,2.6648557E-3,1.2239077E-1,3.5164878E-2,8.566931E-2,3.6589522E-2],"split_indices":[82,1,7,2,6,7,7,0,3,74,0,6,208,6,6,0,6,78,0,0,3,82,0,108,0,3,0,0,0,0,0,80,0,0,0,0,0,0,0,0,0,0,0],"split_type":[0,0,0,0,0,0,0,0,0,0,0,0,0,0,0,0,0,0,0,0,0,0,0,0,0,0,0,0,0,0,0,0,0,0,0,0,0,0,0,0,0,0,0],"sum_hessian":[1.4146988E2,5.827765E1,8.319223E1,3.2157784E1,2.6119865E1,7.4151505E1,9.040726E0,2.7629915E1,4.5278664E0,1.9391947E1,6.7279186E0,5.183024E0,6.896848E1,6.23305E0,2.807676E0,1.9414833E0,2.5863833E0,1.821835E1,1.1735973E0,1.1832813E0,5.5446377E0,3.74749E0,1.4355338E0,6.730958E1,1.6589031E0,5.0697026E0,1.1633472E0,1.6381943E0,1.1694818E0,1.3940045E0,1.1923788E0,1.7021002E1,1.1973474E0,1.1551328E0,4.3895044E0,1.639767E0,2.107723E0,6.61263E1,1.1832813E0,3.4003913E0,1.6693112E0,1.0296708E1,6.724293E0],"tree_param":{"num_deleted":"0","num_feature":"209","num_nodes":"43","size_leaf_vector":"1"}},{"base_weights":[-7.2919833E-3,1.1089706E0,-8.162152E-1,1.7482834E0,2.7692527E-1,-9.687215E-1,3.793419E-1,1.4298654E-1,6.0207456E-1,7.1392345E-1,-9.442332E-1,-2.1167305E-1,-1.0227774E0,8.4929496E-1,-6.274013E-1,1.1220289E-1,-3.118957E-1,1.3886904E0,4.9942547E-1,2.5556562E-3,-1.1301913E0,-6.0585254E-1,4.7452733E-2,-1.0525359E0,8.0172E-3,1.10233545E-1,-3.416463E-2,4.414033E-3,-7.187414E-2,-6.6764824E-2,3.3879433E-2,3.193441E-2,1.2151248E-1,8.739606E-1,5.8648467E-2,-2.7218254E-2,-9.211839E-2,-8.486159E-3,-7.1984656E-2,-1.0726974E0,2.5556562E-3,-2.357757E-2,1.0058708E-1,-5.187745E-2,2.460858E-2,-5.5297125E-2,-8.326775E-2],"categories":[],"categories_nodes":[],"categories_segments":[],"categories_sizes":[],"default_left":[0,0,0,0,0,0,0,0,0,0,0,0,0,0,0,0,0,0,0,0,0,0,0,0,0,0,0,0,0,0,0,0,0,0,0,0,0,0,0,0,0,0,0,0,0,0,0],"id":2,"left_children":[1,3,5,7,9,11,13,-1,15,17,19,21,23,25,27,-1,29,31,33,-1,35,37,-1,39,-1,-1,-1,-1,-1,-1,-1,-1,-1,41,43,-1,-1,-1,-1,45,-1,-1,-1,-1,-1,-1,-1],"loss_changes":[1.2859363E2,3.1347618E1,1.5422123E1,4.954361E0,1.5183641E1,2.7916946E0,5.2922306E0,0E0,4.995519E0,2.2870522E0,1.4204478E0,2.4335723E0,2.410202E0,6.566007E0,9.14037E-1,0E0,1.9778984E0,2.9211426E-1,2.7861934E0,0E0,3.6678314E-2,7.128303E-1,0E0,1.4975128E0,0E0,0E0,0E0,0E0,0E0,0E0,0E0,0E0,0E0,5.540514E0,2.0401318E0,0E0,0E0,0E0,0E0,6.1569214E-3,0E0,0E0,0E0,0E0,0E0,0E0,0E0],"parents":[2147483647,0,0,1,1,2,2,3,3,4,4,5,5,6,6,8,8,9,9,10,10,11,11,12,12,13,13,14,14,16,16,17,17,18,18,20,20,21,21,23,23,33,33,34,34,39,39],"right_children":[2,4,6,8,10,12,14,-1,16,18,20,22,24,26,28,-1,30,32,34,-1,36,38,-1,40,-1,-1,-1,-1,-1,-1,-1,-1,-1,42,44,-1,-1,-1,-1,46,-1,-1,-1,-1,-1,-1,-1],"split_conditions":[1.452127E-1,3E0,5.5E1,1E0,2.2525E1,4.2E1,9.7E1,1.4298654E-1,2.85E1,7E0,1.23E2,6.33583E1,6.6335243E-1,7.72875E1,2.85E1,1.1220289E-1,2.7E1,3.78E2,3.98E2,2.5556562E-3,7E0,3.1275E1,4.7452733E-2,5.838974E-1,8.0172E-3,1.10233545E-1,-3.416463E-2,4.414033E-3,-7.187414E-2,-6.6764824E-2,3.3879433E-2,3.193441E-2,1.2151248E-1,2.05E1,5.08E2,-2.7218254E-2,-9.211839E-2,-8.486159E-3,-7.1984656E-2,1E0,2.5556562E-3,-2.357757E-2,1.0058708E-1,-5.187745E-2,2.460858E-2,-5.5297125E-2,-8.326775E-2],"split_indices":[82,1,7,2,6,7,7,0,3,3,0,6,208,6,3,0,6,0,0,0,3,6,0,108,0,0,0,0,0,0,0,0,0,3,0,0,0,0,0,8,0,0,0,0,0,0,0],"split_type":[0,0,0,0,0,0,0,0,0,0,0,0,0,0,0,0,0,0,0,0,0,0,0,0,0,0,0,0,0,0,0,0,0,0,0,0,0,0,0,0,0,0,0,0,0,0,0],"sum_hessian":[1.404093E2,5.884123E1,8.156808E1,3.2651695E1,2.6189535E1,7.250855E1,9.059523E0,2.8108734E1,4.54296E0,1.9593328E1,6.5962067E0,5.1599383E0,6.734862E1,6.282985E0,2.7765372E0,1.9746639E0,2.5682964E0,3.4056633E0,1.6187664E1,1.1840081E0,5.4121985E0,3.7103317E0,1.4496065E0,6.5686554E1,1.6620655E0,4.172436E0,2.1105492E0,1.1707714E0,1.6057658E0,1.3671645E0,1.2011318E0,1.2103388E0,2.1953244E0,8.220124E0,7.9675407E0,1.1459726E0,4.266226E0,2.1028101E0,1.6075215E0,6.450254E1,1.1840081E0,2.4120865E0,5.8080373E0,1.6912374E0,6.2763033E0,8.570268E0,5.5932274E1],"tree_param":{"num_deleted":"0","num_feature":"209","num_nodes":"47","size_leaf_vector":"1"}},{"base_weights":[-6.4349505E-3,1.028257E0,-7.736776E-1,1.6165926E0,2.589288E-1,-9.2045873E-1,3.5144445E-1,1.3195574E-1,5.7099384E-1,6.6571105E-1,-9.062772E-1,-2.596442E-1,-9.793195E-1,7.924E-1,-6.0385287E-1,1.05915256E-1,-2.9974034E-1,7.521473E-1,-3.1152604E-2,2.4509283E-3,-1.0888549E0,-6.514886E-1,7.1244575E-2,-1.009077E0,7.6329503E-3,1.2171721E0,-6.0856108E-2,-7.0633605E-2,6.084871E-3,-6.4674035E-2,3.2374505E-2,1.2386757E0,5.8090013E-1,-2.6244434E-2,-8.882262E-2,-8.047348E-2,-1.14172004E-1,-4.6565065E-1,-1.0706832E0,1.0721162E-1,3.0899012E-2,3.0529121E-2,1.08084425E-1,6.797009E-2,-8.629524E-3,-6.439191E-2,4.0617302E-2,1.01272E-2,-8.389789E-2,-4.9876243E-2,-8.4273346E-2],"categories":[],"categories_nodes":[],"categories_segments":[],"categories_sizes":[],"default_left":[0,0,0,0,0,0,0,0,0,0,0,0,0,0,0,0,0,0,0,0,0,0,0,0,0,0,0,0,0,0,0,0,0,0,0,0,0,0,0,0,0,0,0,0,0,0,0,0,0,0,0],"id":3,"left_children":[1,3,5,7,9,11,13,-1,15,17,19,21,23,25,27,-1,29,31,-1,-1,33,35,-1,37,-1,39,-1,-1,-1,-1,-1,41,43,-1,-1,-1,45,47,49,-1,-1,-1,-1,-1,-1,-1,-1,-1,-1,-1,-1],"loss_changes":[1.1180483E2,2.6724972E1,1.3678158E1,4.0414276E0,1.3485339E1,2.5388412E0,4.71443E0,0E0,4.482145E0,2.2487516E0,1.3138423E0,4.0474977E0,2.2123108E0,5.969325E0,9.428853E-1,0E0,1.8320427E0,9.0874386E-1,0E0,0E0,2.7910233E-2,1.2492678E0,0E0,1.6410675E0,0E0,4.6778965E-1,0E0,0E0,0E0,0E0,0E0,1.2131977E-1,3.804029E0,0E0,0E0,0E0,2.3109243E0,3.3976767E0,4.695053E-1,0E0,0E0,0E0,0E0,0E0,0E0,0E0,0E0,0E0,0E0,0E0,0E0],"parents":[2147483647,0,0,1,1,2,2,3,3,4,4,5,5,6,6,8,8,9,9,10,10,11,11,12,12,13,13,14,14,16,16,17,17,20,20,21,21,23,23,25,25,31,31,32,32,36,36,37,37,38,38],"right_children":[2,4,6,8,10,12,14,-1,16,18,20,22,24,26,28,-1,30,32,-1,-1,34,36,-1,38,-1,40,-1,-1,-1,-1,-1,42,44,-1,-1,-1,46,48,50,-1,-1,-1,-1,-1,-1,-1,-1,-1,-1,-1,-1],"split_conditions":[1.452127E-1,3E0,5.5E1,1E0,2.2525E1,4.8E1,9.7E1,1.3195574E-1,2.85E1,5.5635244E-1,1.23E2,1E0,6.6335243E-1,9.10792E1,3.675E1,1.05915256E-1,2.7E1,7E0,-3.1152604E-2,2.4509283E-3,7E0,3E1,7.1244575E-2,1.9887626E-1,7.6329503E-3,4.3E1,-6.0856108E-2,-7.0633605E-2,6.084871E-3,-6.4674035E-2,3.2374505E-2,3.78E2,5.3099376E-1,-2.6244434E-2,-8.882262E-2,-8.047348E-2,1.89E2,1E0,1E0,1.0721162E-1,3.0899012E-2,3.0529121E-2,1.08084425E-1,6.797009E-2,-8.629524E-3,-6.439191E-2,4.0617302E-2,1.01272E-2,-8.389789E-2,-4.9876243E-2,-8.4273346E-2],"split_indices":[82,1,7,2,6,7,7,0,3,74,0,4,208,6,6,0,6,3,0,0,3,6,0,82,0,3,0,0,0,0,0,0,80,0,0,0,0,4,8,0,0,0,0,0,0,0,0,0,0,0,0],"split_type":[0,0,0,0,0,0,0,0,0,0,0,0,0,0,0,0,0,0,0,0,0,0,0,0,0,0,0,0,0,0,0,0,0,0,0,0,0,0,0,0,0,0,0,0,0,0,0,0,0,0,0],"sum_hessian":[1.388349E2,5.896942E1,7.986548E1,3.279131E1,2.6178112E1,7.080969E1,9.055787E0,2.8249989E1,4.541321E0,1.972177E1,6.456344E0,6.233948E0,6.4575745E1,6.312515E0,2.7432725E0,1.9935318E0,2.547789E0,1.8543417E1,1.1783515E0,1.1847018E0,5.271642E0,5.0570807E0,1.1768672E0,6.2910713E1,1.6650298E0,5.1813145E0,1.1312003E0,1.5859632E0,1.1573093E0,1.3389182E0,1.2088709E0,3.2048616E0,1.5338555E1,1.1368172E0,4.134825E0,2.275316E0,2.7817647E0,7.2772136E0,5.56335E1,3.4865952E0,1.6947193E0,1.2168694E0,1.9879923E0,1.0246188E1,5.092367E0,1.157956E0,1.6238089E0,4.2035785E0,3.0736353E0,7.989913E0,4.764359E1],"tree_param":{"num_deleted":"0","num_feature":"209","num_nodes":"51","size_leaf_vector":"1"}},{"base_weights":[-6.3378774E-3,9.5843416E-1,-7.3512614E-1,1.5078489E0,2.4157329E-1,-8.7649655E-1,3.2719046E-1,1.2293733E-1,5.42757E-1,6.2080026E-1,-8.712129E-1,-2.4671978E-1,-9.336448E-1,7.4342644E-1,-5.813369E-1,1.00398324E-1,-2.8848776E-1,1.2479868E0,4.2389783E-1,2.3505145E-3,-1.0509806E0,-6.265831E-1,6.778973E-2,-9.628145E-1,7.267407E-3,1.1442162E0,-5.906505E-2,5.853664E-3,-6.836649E-2,-6.2712796E-2,3.0946437E-2,2.9194105E-2,1.089066E-1,7.727347E-1,1.614842E-2,-2.5309438E-2,-8.58341E-2,-7.767957E-2,-1.1225021E-1,-4.4435728E-1,-1.022539E0,3.188356E-2,1.0348775E-1,-2.381469E-2,8.987919E-2,4.943163E-2,-2.1647936E-2,-6.239972E-2,3.847704E-2,9.486614E-3,-8.1077494E-2,-4.7297623E-2,-8.057955E-2],"categories":[],"categories_nodes":[],"categories_segments":[],"categories_sizes":[],"default_left":[0,0,0,0,0,0,0,0,0,0,0,0,0,0,0,0,0,0,0,0,0,0,0,0,0,0,0,0,0,0,0,0,0,0,0,0,0,0,0,0,0,0,0,0,0,0,0,0,0,0,0,0,0],"id":4,"left_children":[1,3,5,7,9,11,13,-1,15,17,19,21,23,25,27,-1,29,31,33,-1,35,37,-1,39,-1,41,-1,-1,-1,-1,-1,-1,-1,43,45,-1,-1,-1,47,49,51,-1,-1,-1,-1,-1,-1,-1,-1,-1,-1,-1,-1],"loss_changes":[9.7665436E1,2.3179276E1,1.2169735E1,3.3748627E0,1.1988443E1,2.292717E0,4.2218146E0,0E0,4.041579E0,2.0416536E0,1.2191491E0,3.709435E0,2.0145378E0,5.3873315E0,8.789178E-1,0E0,1.6986827E0,2.1633673E-1,2.4563198E0,0E0,2.234745E-2,1.1457326E0,0E0,1.4729958E0,0E0,4.642725E-1,0E0,0E0,0E0,0E0,0E0,0E0,0E0,4.711655E0,1.9585812E0,0E0,0E0,0E0,2.1273255E0,3.116321E0,4.411049E-1,0E0,0E0,0E0,0E0,0E0,0E0,0E0,0E0,0E0,0E0,0E0,0E0],"parents":[2147483647,0,0,1,1,2,2,3,3,4,4,5,5,6,6,8,8,9,9,10,10,11,11,12,12,13,13,14,14,16,16,17,17,18,18,20,20,21,21,23,23,25,25,33,33,34,34,38,38,39,39,40,40],"right_children":[2,4,6,8,10,12,14,-1,16,18,20,22,24,26,28,-1,30,32,34,-1,36,38,-1,40,-1,42,-1,-1,-1,-1,-1,-1,-1,44,46,-1,-1,-1,48,50,52,-1,-1,-1,-1,-1,-1,-1,-1,-1,-1,-1,-1],"split_conditions":[1.452127E-1,3E0,5.5E1,1E0,2.2525E1,4.8E1,9.7E1,1.2293733E-1,2.85E1,7E0,1.23E2,1E0,6.6335243E-1,9.10792E1,2.85E1,1.00398324E-1,2.7E1,3.78E2,3.98E2,2.3505145E-3,7E0,3E1,6.778973E-2,1.9887626E-1,7.267407E-3,2.6553795E-1,-5.906505E-2,5.853664E-3,-6.836649E-2,-6.2712796E-2,3.0946437E-2,2.9194105E-2,1.089066E-1,2.05E1,1.9E1,-2.5309438E-2,-8.58341E-2,-7.767957E-2,1.89E2,1E0,1E0,3.188356E-2,1.0348775E-1,-2.381469E-2,8.987919E-2,4.943163E-2,-2.1647936E-2,-6.239972E-2,3.847704E-2,9.486614E-3,-8.1077494E-2,-4.7297623E-2,-8.057955E-2],"split_indices":[82,1,7,2,6,7,7,0,3,3,0,4,208,6,3,0,6,0,0,0,3,6,0,82,0,82,0,0,0,0,0,0,0,3,3,0,0,0,0,4,8,0,0,0,0,0,0,0,0,0,0,0,0],"split_type":[0,0,0,0,0,0,0,0,0,0,0,0,0,0,0,0,0,0,0,0,0,0,0,0,0,0,0,0,0,0,0,0,0,0,0,0,0,0,0,0,0,0,0,0,0,0,0,0,0,0,0,0,0],"sum_hessian":[1.3690196E2,5.8777294E1,7.812466E1,3.26502E1,2.6127094E1,6.910346E1,9.021195E0,2.8124926E1,4.525276E0,1.9816082E1,6.3110123E0,6.1913686E0,6.2912098E1,6.311394E0,2.7098014E0,1.9999684E0,2.525308E0,3.459275E0,1.6356808E1,1.1853639E0,5.1256485E0,4.997028E0,1.1943406E0,6.1244286E1,1.6678095E0,5.2021422E0,1.1092519E0,1.1590397E0,1.5507617E0,1.3096256E0,1.2156823E0,1.2225788E0,2.2366962E0,8.332814E0,8.023993E0,1.1276987E0,3.9979496E0,2.2185073E0,2.7785206E0,7.198199E0,5.404609E1,1.9759309E0,3.2262113E0,2.411096E0,5.921718E0,2.2066598E0,5.8173327E0,1.137993E0,1.6405275E0,4.2178197E0,2.9803789E0,7.853476E0,4.619261E1],"tree_param":{"num_deleted":"0","num_feature":"209","num_nodes":"53","size_leaf_vector":"1"}},{"base_weights":[-5.6769503E-3,8.9909375E-1,-6.993578E-1,1.4162005E0,2.2860043E-1,-8.357054E-1,3.0516183E-1,1.1540248E-1,5.1695645E-1,5.8422506E-1,-8.386271E-1,-2.3511294E-1,-8.9119023E-1,6.989548E-1,-5.601844E-1,9.5516525E-2,-2.7805135E-1,6.648625E-1,-3.1056488E-2,2.2542109E-3,-1.0160422E0,-6.0366607E-1,6.45882E-2,-9.198429E-1,6.9196275E-3,9.208991E-2,-3.2483343E-2,-6.73084E-2,7.393382E-3,-6.08674E-2,2.9590148E-2,4.4548818E-1,9.672193E-1,-2.4411261E-2,-8.310456E-2,-7.5102195E-2,-1.1059124E-1,-4.2450875E-1,-9.7785664E-1,4.890019E-2,-3.7134524E-2,9.4343014E-2,-7.489649E-5,-6.0526088E-2,3.6471225E-2,8.888081E-3,-7.848298E-2,-4.486174E-2,-7.716563E-2],"categories":[],"categories_nodes":[],"categories_segments":[],"categories_sizes":[],"default_left":[0,0,0,0,0,0,0,0,0,0,0,0,0,0,0,0,0,0,0,0,0,0,0,0,0,0,0,0,0,0,0,0,0,0,0,0,0,0,0,0,0,0,0,0,0,0,0,0,0],"id":5,"left_children":[1,3,5,7,9,11,13,-1,15,17,19,21,23,25,27,-1,29,31,-1,-1,33,35,-1,37,-1,-1,-1,-1,-1,-1,-1,39,41,-1,-1,-1,43,45,47,-1,-1,-1,-1,-1,-1,-1,-1,-1,-1],"loss_changes":[8.576113E1,2.02374E1,1.0847843E1,2.871498E0,1.0742655E1,2.0686264E0,3.7909083E0,0E0,3.66055E0,1.9538913E0,1.1343956E0,3.4047115E0,1.8382645E0,4.903159E0,9.049525E-1,0E0,1.576559E0,8.7427807E-1,0E0,0E0,1.9112587E-2,1.0523856E0,0E0,1.3249893E0,0E0,0E0,0E0,0E0,0E0,0E0,0E0,2.8980439E0,2.0895524E0,0E0,0E0,0E0,1.9605112E0,2.8648517E0,4.1976166E-1,0E0,0E0,0E0,0E0,0E0,0E0,0E0,0E0,0E0,0E0],"parents":[2147483647,0,0,1,1,2,2,3,3,4,4,5,5,6,6,8,8,9,9,10,10,11,11,12,12,13,13,14,14,16,16,17,17,20,20,21,21,23,23,31,31,32,32,36,36,37,37,38,38],"right_children":[2,4,6,8,10,12,14,-1,16,18,20,22,24,26,28,-1,30,32,-1,-1,34,36,-1,38,-1,-1,-1,-1,-1,-1,-1,40,42,-1,-1,-1,44,46,48,-1,-1,-1,-1,-1,-1,-1,-1,-1,-1],"split_conditions":[1.452127E-1,3E0,5.5E1,1E0,2.2525E1,4.8E1,9.7E1,1.1540248E-1,2.85E1,5.5635244E-1,1.23E2,1E0,6.6335243E-1,7.72875E1,3.675E1,9.5516525E-2,2.7E1,1.55E1,-3.1056488E-2,2.2542109E-3,7E0,3E1,6.45882E-2,1.9887626E-1,6.9196275E-3,9.208991E-2,-3.2483343E-2,-6.73084E-2,7.393382E-3,-6.08674E-2,2.9590148E-2,1.35E1,2.1E1,-2.4411261E-2,-8.310456E-2,-7.5102195E-2,1.89E2,1E0,1E0,4.890019E-2,-3.7134524E-2,9.4343014E-2,-7.489649E-5,-6.0526088E-2,3.6471225E-2,8.888081E-3,-7.848298E-2,-4.486174E-2,-7.716563E-2],"split_indices":[82,1,7,2,6,7,7,0,3,74,0,4,208,6,6,0,6,6,0,0,3,6,0,82,0,0,0,0,0,0,0,6,6,0,0,0,0,4,8,0,0,0,0,0,0,0,0,0,0],"split_type":[0,0,0,0,0,0,0,0,0,0,0,0,0,0,0,0,0,0,0,0,0,0,0,0,0,0,0,0,0,0,0,0,0,0,0,0,0,0,0,0,0,0,0,0,0,0,0,0,0],"sum_hessian":[1.3464267E2,5.830244E1,7.6340225E1,3.2288387E1,2.6014051E1,6.73646E1,8.975619E0,2.7791409E1,4.4969797E0,1.9851616E1,6.162436E0,6.139995E0,6.122461E1,6.3006616E0,2.674958E0,1.9957323E0,2.5012472E0,1.8677015E1,1.1746008E0,1.185996E0,4.97644E0,4.9314747E0,1.2085205E0,5.955419E1,1.6704173E0,4.2366433E0,2.064018E0,1.5295621E0,1.1453959E0,1.2796004E0,1.2216468E0,1.225721E1,6.4198055E0,1.1186452E0,3.8577945E0,2.1591382E0,2.7723365E0,7.1157494E0,5.2438442E1,1.03021755E1,1.955034E0,4.707329E0,1.7124766E0,1.1169868E0,1.6553499E0,4.23103E0,2.8847191E0,7.7185063E0,4.4719936E1],"tree_param":{"num_deleted":"0","num_feature":"209","num_nodes":"49","size_leaf_vector":"1"}},{"base_weights":[-6.2518357E-3,8.4345263E-1,-6.6623724E-1,1.3376064E0,2.107727E-1,-7.9761016E-1,2.8396064E-1,1.4532099E0,4.932545E-1,5.425079E-1,-8.081823E-1,-8.296596E-1,7.368488E-2,6.5737885E-1,-5.3990006E-1,1.4795845E0,3.535461E-2,9.11628E-2,-2.68355E-1,1.1484059E0,3.5633552E-1,2.1618686E-3,-9.836104E-1,-8.588974E-1,7.048389E-3,3.640133E-2,-2.806276E-2,1.0231783E0,-5.646247E-2,7.119596E-3,-6.526556E-2,1.5084208E0,3.535461E-2,-5.912603E-2,2.830102E-2,2.6694022E-2,1.0049592E-1,4.7318178E-1,-4.2482153E-2,-2.465714E-2,-8.1503406E-2,-8.8639754E-1,6.588717E-3,1.0081842E-1,4.4709426E-1,3.535461E-2,1.1550604E-1,5.859295E-2,-1.1507434E-2,-6.801295E-2,7.054022E-3,5.555435E-2,-6.259377E-3],"categories":[],"categories_nodes":[],"categories_segments":[],"categories_sizes":[],"default_left":[0,0,0,0,0,0,0,0,0,0,0,0,0,0,0,0,0,0,0,0,0,0,0,0,0,0,0,0,0,0,0,0,0,0,0,0,0,0,0,0,0,0,0,0,0,0,0,0,0,0,0,0,0],"id":6,"left_children":[1,3,5,7,9,11,13,15,17,19,21,23,25,27,29,31,-1,-1,33,35,37,-1,39,41,-1,-1,-1,43,-1,-1,-1,45,-1,-1,-1,-1,-1,47,-1,-1,-1,49,-1,-1,51,-1,-1,-1,-1,-1,-1,-1,-1],"loss_changes":[7.525914E1,1.8061207E1,9.654644E0,2.4804268E0,9.536836E0,1.9213562E0,3.4041166E0,3.527069E-2,3.3286934E0,1.9487844E0,1.0580225E0,1.8180771E0,7.866743E-1,4.5211163E0,8.459413E-1,7.647705E-2,0E0,0E0,1.4645653E0,2.0061302E-1,2.1484854E0,0E0,3.6067963E-2,1.7040329E0,0E0,0E0,0E0,5.452738E-1,0E0,0E0,0E0,1.23737335E-1,0E0,0E0,0E0,0E0,0E0,3.2132506E0,0E0,0E0,0E0,1.3035812E0,0E0,0E0,6.4075786E-1,0E0,0E0,0E0,0E0,0E0,0E0,0E0,0E0],"parents":[2147483647,0,0,1,1,2,2,3,3,4,4,5,5,6,6,7,7,8,8,9,9,10,10,11,11,12,12,13,13,14,14,15,15,18,18,19,19,20,20,22,22,23,23,27,27,31,31,37,37,41,41,44,44],"right_children":[2,4,6,8,10,12,14,16,18,20,22,24,26,28,30,32,-1,-1,34,36,38,-1,40,42,-1,-1,-1,44,-1,-1,-1,46,-1,-1,-1,-1,-1,48,-1,-1,-1,50,-1,-1,52,-1,-1,-1,-1,-1,-1,-1,-1],"split_conditions":[1.452127E-1,3E0,5.5E1,1E0,2.2525E1,7.92E1,9.7E1,8.53E2,2.85E1,7E0,1.23E2,7.2825533E-1,5.152645E-1,9.10792E1,2.85E1,6.7535317E-1,3.535461E-2,9.11628E-2,2.7E1,3.78E2,5.2358615E-1,2.1618686E-3,2.37E2,6.6335243E-1,7.048389E-3,3.640133E-2,-2.806276E-2,3.00708E1,-5.646247E-2,7.119596E-3,-6.526556E-2,4.4E1,3.535461E-2,-5.912603E-2,2.830102E-2,2.6694022E-2,1.0049592E-1,5.3099376E-1,-4.2482153E-2,-2.465714E-2,-8.1503406E-2,5.838974E-1,6.588717E-3,1.0081842E-1,3.9E1,3.535461E-2,1.1550604E-1,5.859295E-2,-1.1507434E-2,-6.801295E-2,7.054022E-3,5.555435E-2,-6.259377E-3],"split_indices":[82,1,7,2,6,6,7,0,3,3,0,56,204,6,3,38,0,0,6,0,74,0,0,208,0,0,0,6,0,0,0,0,0,0,0,0,0,80,0,0,0,108,0,0,3,0,0,0,0,0,0,0,0],"split_type":[0,0,0,0,0,0,0,0,0,0,0,0,0,0,0,0,0,0,0,0,0,0,0,0,0,0,0,0,0,0,0,0,0,0,0,0,0,0,0,0,0,0,0,0,0,0,0,0,0,0,0,0,0],"sum_hessian":[1.3219933E2,5.767155E1,7.452777E1,3.175509E1,2.591646E1,6.561634E1,8.91143E0,2.7296701E1,4.458389E0,1.990401E1,6.0124483E0,6.3334457E1,2.2818844E0,6.2711024E0,2.6403277E0,2.6088884E1,1.2078187E0,1.9824373E0,2.4759517E0,3.4635096E0,1.6440502E1,1.1865997E0,4.8258486E0,6.145906E1,1.8753974E0,1.1453556E0,1.136529E0,5.197386E0,1.0737168E0,1.1475065E0,1.4928212E0,2.4881065E1,1.2078187E0,1.2491114E0,1.2268403E0,1.2305164E0,2.2329934E0,1.5025136E1,1.4153655E0,1.2262233E0,3.5996253E0,5.9786194E1,1.6728648E0,2.4811535E0,2.7162323E0,1.2078187E0,2.3673246E1,9.907585E0,5.117552E0,5.8638695E1,1.1475016E0,1.4935182E0,1.2227142E0],"tree_param":{"num_deleted":"0","num_feature":"209","num_nodes":"53","size_leaf_vector":"1"}},{"base_weights":[-3.816857E-3,7.965461E-1,-6.323688E-1,1.2718248E0,1.9678935E-1,-7.5903744E-1,2.6853096E-1,1.382277E0,4.713702E-1,5.08001E-1,-7.792004E-1,-1.8964092E-1,-8.1361896E-1,5.241541E-1,-6.0915034E-2,1.4086728E0,3.226905E-2,8.725178E-2,-2.5933176E-1,1.0934358E0,3.2953247E-1,2.0733092E-3,-9.526711E-1,-5.465833E-1,6.1952736E-2,-8.41346E-1,6.2738326E-3,7.976396E-1,-5.4908827E-2,1.4359972E0,3.4034964E-2,-5.7478484E-2,2.7074823E-2,2.5546204E-2,9.571881E-2,6.5405434E-1,-4.2575624E-2,-2.1488583E-2,-7.859528E-2,-7.062732E-2,-7.752458E-2,-3.6163235E-1,-8.9956176E-1,9.7611114E-2,-1.18740916E-1,1.0995302E-1,3.4034964E-2,-2.5208065E-2,7.835035E-2,-1.9772774E-2,5.609852E-2,-5.7360947E-2,3.6695514E-2,1.21059E-2,-7.430984E-2,-3.9301872E-2,-7.139586E-2,-3.6107324E-2,2.4048412E-2],"categories":[],"categories_nodes":[],"categories_segments":[],"categories_sizes":[],"default_left":[0,0,0,0,0,0,0,0,0,0,0,0,0,0,0,0,0,0,0,0,0,0,0,0,0,0,0,0,0,0,0,0,0,0,0,0,0,0,0,0,0,0,0,0,0,0,0,0,0,0,0,0,0,0,0,0,0,0,0],"id":7,"left_children":[1,3,5,7,9,11,13,15,17,19,21,23,25,27,-1,29,-1,-1,31,33,35,-1,37,39,-1,41,-1,43,-1,45,-1,-1,-1,-1,-1,47,49,-1,-1,-1,51,53,55,-1,57,-1,-1,-1,-1,-1,-1,-1,-1,-1,-1,-1,-1,-1,-1],"loss_changes":[6.620132E1,1.6250809E1,8.614769E0,2.1875534E0,8.528661E0,1.8621101E0,3.1397943E0,9.0019226E-2,3.0378265E0,1.8241129E0,9.8765135E-1,2.9817584E0,1.5357742E0,3.5224986E0,0E0,4.0138245E-2,0E0,0E0,1.3617259E0,1.7816067E-1,2.1355686E0,0E0,6.0287476E-2,9.956478E-1,0E0,1.2728539E0,0E0,3.6184835E0,0E0,8.169174E-2,0E0,0E0,0E0,0E0,0E0,3.98075E0,1.7822537E0,0E0,0E0,0E0,1.8257154E0,2.7482958E0,4.9184418E-1,0E0,7.245575E-1,0E0,0E0,0E0,0E0,0E0,0E0,0E0,0E0,0E0,0E0,0E0,0E0,0E0,0E0],"parents":[2147483647,0,0,1,1,2,2,3,3,4,4,5,5,6,6,7,7,8,8,9,9,10,10,11,11,12,12,13,13,15,15,18,18,19,19,20,20,22,22,23,23,25,25,27,27,29,29,35,35,36,36,40,40,41,41,42,42,44,44],"right_children":[2,4,6,8,10,12,14,16,18,20,22,24,26,28,-1,30,-1,-1,32,34,36,-1,38,40,-1,42,-1,44,-1,46,-1,-1,-1,-1,-1,48,50,-1,-1,-1,52,54,56,-1,58,-1,-1,-1,-1,-1,-1,-1,-1,-1,-1,-1,-1,-1,-1],"split_conditions":[1.452127E-1,3E0,5.5E1,1E0,2.2525E1,4.8E1,1.05E2,3.0962843E-1,2.85E1,7E0,1.23E2,1E0,6.6335243E-1,9.10792E1,-6.0915034E-2,8.53E2,3.226905E-2,8.725178E-2,2.7E1,3.78E2,3.98E2,2.0733092E-3,7E0,3E1,6.1952736E-2,1.9887626E-1,6.2738326E-3,4.3E1,-5.4908827E-2,6.7535317E-1,3.4034964E-2,-5.7478484E-2,2.7074823E-2,2.5546204E-2,9.571881E-2,2.05E1,4.227433E-1,-2.1488583E-2,-7.859528E-2,-7.062732E-2,1.89E2,1E0,1E0,9.7611114E-2,4.58E2,1.0995302E-1,3.4034964E-2,-2.5208065E-2,7.835035E-2,-1.9772774E-2,5.609852E-2,-5.7360947E-2,3.6695514E-2,1.21059E-2,-7.430984E-2,-3.9301872E-2,-7.139586E-2,-3.6107324E-2,2.4048412E-2],"split_indices":[82,1,7,2,6,7,7,65,3,3,0,4,208,6,0,0,0,0,6,0,0,0,3,6,0,82,0,3,0,38,0,0,0,0,0,3,83,0,0,0,0,4,8,0,0,0,0,0,0,0,0,0,0,0,0,0,0,0,0],"split_type":[0,0,0,0,0,0,0,0,0,0,0,0,0,0,0,0,0,0,0,0,0,0,0,0,0,0,0,0,0,0,0,0,0,0,0,0,0,0,0,0,0,0,0,0,0,0,0,0,0,0,0,0,0,0,0,0,0,0,0],"sum_hessian":[1.2959344E2,5.688807E1,7.270537E1,3.1112402E1,2.577567E1,6.3881016E1,8.824354E0,2.6701136E1,4.4112654E0,1.9907356E1,5.8683124E0,5.9792924E0,5.7901722E1,7.552886E0,1.271468E0,2.551407E1,1.1870662E0,1.9615428E0,2.4497223E0,3.4531465E0,1.6454208E1,1.1871762E0,4.681136E0,4.7661605E0,1.2131319E0,5.622656E1,1.6751631E0,6.5024104E0,1.0504754E0,2.4314432E1,1.1996384E0,1.218389E0,1.2313333E0,1.2341548E0,2.2189918E0,8.384363E0,8.069846E0,1.0870882E0,3.594048E0,2.040067E0,2.7260938E0,6.865435E0,4.9361122E1,3.9244428E0,2.577968E0,2.3114794E1,1.1996384E0,2.4113812E0,5.9729815E0,6.8272696E0,1.242577E0,1.0741926E0,1.651901E0,4.154841E0,2.7105942E0,7.3894444E0,4.197168E1,1.3598198E0,1.2181481E0],"tree_param":{"num_deleted":"0","num_feature":"209","num_nodes":"59","size_leaf_vector":"1"}},{"base_weights":[-2.6407223E-3,7.560736E-1,-6.036363E-1,1.2138336E0,1.873929E-1,-7.251115E-1,2.4789229E-1,1.3201585E0,4.5106924E-1,4.5915014E-1,-8.342623E-1,-1.817544E-1,-7.780739E-1,4.92708E-1,-5.9173424E-2,1.3454182E0,3.1085633E-2,8.371483E-2,-2.5092262E-1,1.0436246E0,2.9165366E-1,-3.7890044E-1,-7.421581E-2,-5.2854824E-1,5.916949E-2,-8.053903E-1,5.974175E-3,7.543694E-1,-5.3433284E-2,1.3715916E0,3.2774303E-2,-5.591592E-2,2.5907675E-2,2.4452692E-2,9.145671E-2,6.597172E-1,-1.0743432E-1,9.403953E-3,-5.406469E-2,-6.853509E-2,-7.769223E-2,-8.2640606E-1,8.011209E-3,9.250414E-2,-1.1366495E-1,1.0503175E-1,3.2774303E-2,-2.3948733E-2,7.72416E-2,-2.3699593E-2,5.3668212E-2,-5.5765662E-2,3.4800645E-2,-4.765329E-2,-6.919321E-2,-3.4762803E-2,2.3035096E-2],"categories":[],"categories_nodes":[],"categories_segments":[],"categories_sizes":[],"default_left":[0,0,0,0,0,0,0,0,0,0,0,0,0,0,0,0,0,0,0,0,0,0,0,0,0,0,0,0,0,0,0,0,0,0,0,0,0,0,0,0,0,0,0,0,0,0,0,0,0,0,0,0,0,0,0,0,0],"id":8,"left_children":[1,3,5,7,9,11,13,15,17,19,21,23,25,27,-1,29,-1,-1,31,33,35,37,-1,39,-1,41,-1,43,-1,45,-1,-1,-1,-1,-1,47,49,-1,-1,-1,51,53,-1,-1,55,-1,-1,-1,-1,-1,-1,-1,-1,-1,-1,-1,-1],"loss_changes":[5.8755775E1,1.4599216E1,7.616873E0,1.9488754E0,7.763624E0,1.676651E0,2.8564408E0,6.0401917E-2,2.7814233E0,1.8143892E0,4.5097828E-2,2.7450504E0,1.4057846E0,3.211573E0,0E0,1.4953613E-2,0E0,0E0,1.2671759E0,1.6164112E-1,2.7457092E0,6.303292E-1,0E0,9.1805995E-1,0E0,1.1538506E0,0E0,3.2392116E0,0E0,5.2150726E-2,0E0,0E0,0E0,0E0,0E0,3.812759E0,1.8733559E0,0E0,0E0,0E0,1.6855757E0,4.140663E-1,0E0,0E0,6.6731143E-1,0E0,0E0,0E0,0E0,0E0,0E0,0E0,0E0,0E0,0E0,0E0,0E0],"parents":[2147483647,0,0,1,1,2,2,3,3,4,4,5,5,6,6,7,7,8,8,9,9,10,10,11,11,12,12,13,13,15,15,18,18,19,19,20,20,21,21,23,23,25,25,27,27,29,29,35,35,36,36,40,40,41,41,44,44],"right_children":[2,4,6,8,10,12,14,16,18,20,22,24,26,28,-1,30,-1,-1,32,34,36,38,-1,40,-1,42,-1,44,-1,46,-1,-1,-1,-1,-1,48,50,-1,-1,-1,52,54,-1,-1,56,-1,-1,-1,-1,-1,-1,-1,-1,-1,-1,-1,-1],"split_conditions":[1.452127E-1,3E0,5.5E1,1E0,2.54667E1,4.8E1,1.05E2,3.0962843E-1,2.85E1,7E0,2.37E2,1E0,6.6335243E-1,9.10792E1,-5.9173424E-2,8.53E2,3.1085633E-2,8.371483E-2,2.7E1,3.78E2,3.98E2,3.25E1,-7.421581E-2,3E1,5.916949E-2,5.838974E-1,5.974175E-3,4.3E1,-5.3433284E-2,6.7535317E-1,3.2774303E-2,-5.591592E-2,2.5907675E-2,2.4452692E-2,9.145671E-2,2.05E1,4.227433E-1,9.403953E-3,-5.406469E-2,-6.853509E-2,1.89E2,3.42E2,8.011209E-3,9.250414E-2,4.58E2,1.0503175E-1,3.2774303E-2,-2.3948733E-2,7.72416E-2,-2.3699593E-2,5.3668212E-2,-5.5765662E-2,3.4800645E-2,-4.765329E-2,-6.919321E-2,-3.4762803E-2,2.3035096E-2],"split_indices":[82,1,7,2,6,7,7,65,3,3,0,4,208,6,0,0,0,0,6,0,0,6,0,6,0,108,0,3,0,38,0,0,0,0,0,3,83,0,0,0,0,0,0,0,0,0,0,0,0,0,0,0,0,0,0,0,0],"split_type":[0,0,0,0,0,0,0,0,0,0,0,0,0,0,0,0,0,0,0,0,0,0,0,0,0,0,0,0,0,0,0,0,0,0,0,0,0,0,0,0,0,0,0,0,0,0,0,0,0,0,0,0,0,0,0,0,0],"sum_hessian":[1.2685402E2,5.595578E1,7.089824E1,3.0372746E1,2.5583036E1,6.2176834E1,8.721405E0,2.601557E1,4.3571754E0,2.0642715E1,4.940319E0,5.915876E0,5.626096E1,7.480093E0,1.2413123E0,2.4837322E1,1.1782476E0,1.9343549E0,2.4228203E0,3.4329174E0,1.7209799E1,2.1310692E0,2.80925E0,4.6942534E0,1.2216225E0,5.4583637E1,1.6773221E0,6.4530573E0,1.0270356E0,2.3646181E1,1.1911405E0,1.1876297E0,1.2351907E0,1.2372408E0,2.1956766E0,8.613154E0,8.596644E0,1.1170723E0,1.0139968E0,1.9775981E0,2.7166553E0,5.3446377E1,1.1372615E0,3.887092E0,2.5659652E0,2.245504E1,1.1911405E0,2.4008162E0,6.2123384E0,7.3500967E0,1.246548E0,1.0515279E0,1.6651275E0,2.0443968E1,3.3002407E1,1.3457053E0,1.2202599E0],"tree_param":{"num_deleted":"0","num_feature":"209","num_nodes":"57","size_leaf_vector":"1"}},{"base_weights":[-1.2762032E-3,7.1868336E-1,-5.756302E-1,1.1622146E0,1.7759424E-1,-6.9186825E-1,2.288368E-1,1.2652187E0,4.321555E-1,4.3558744E-1,-8.092502E-1,-7.1945095E-1,1.0716956E-2,5.644668E-1,-5.0382423E-1,1.2896482E0,2.9952716E-2,8.049619E-2,-2.4307476E-1,7.4138296E-1,1.5571831E-1,-1.8514482E-2,-6.673829E-2,-7.5196546E-1,8.253945E-2,8.875771E-1,-5.202917E-2,6.4042876E-3,-6.1327543E-2,1.3506185E0,6.5029055E-1,-5.443063E-2,2.4796037E-2,1.0714246E0,3.2311898E-1,6.335131E-1,-2.2443202E-1,-7.782355E-1,5.688986E-3,-2.6135873E-2,3.4948736E-2,1.9637097E-2,8.3741404E-2,1.0411341E-1,3.3287182E-2,1.9478764E-4,7.20457E-2,1.0551431E-1,1.834983E-2,-1.733537E-2,6.4436994E-2,-4.64724E-2,8.922905E-2,2.9411169E-2,-6.1368935E-2,-2.5031295E-2,-6.250485E-2],"categories":[],"categories_nodes":[],"categories_segments":[],"categories_sizes":[],"default_left":[0,0,0,0,0,0,0,0,0,0,0,0,0,0,0,0,0,0,0,0,0,0,0,0,0,0,0,0,0,0,0,0,0,0,0,0,0,0,0,0,0,0,0,0,0,0,0,0,0,0,0,0,0,0,0,0,0],"id":9,"left_children":[1,3,5,7,9,11,13,15,17,19,21,23,-1,25,27,29,-1,-1,31,33,35,-1,-1,37,39,41,-1,-1,-1,43,45,-1,-1,47,49,51,53,55,-1,-1,-1,-1,-1,-1,-1,-1,-1,-1,-1,-1,-1,-1,-1,-1,-1,-1,-1],"loss_changes":[5.2127678E1,1.3218773E1,6.7152176E0,1.7514076E0,7.0686474E0,1.519207E0,2.6460507E0,4.0489197E-2,2.5542207E0,1.7299113E0,4.3991327E-2,1.6191864E0,0E0,3.4851704E0,7.2557217E-1,9.992981E-2,0E0,0E0,1.1801481E0,1.0394917E0,2.4170136E0,0E0,0E0,1.3091736E0,6.958312E-1,5.751867E-1,0E0,0E0,0E0,1.325531E-1,8.24237E-1,0E0,0E0,1.0920205E0,1.9393425E0,4.787525E0,3.144995E0,1.0901794E0,0E0,0E0,0E0,0E0,0E0,0E0,0E0,0E0,0E0,0E0,0E0,0E0,0E0,0E0,0E0,0E0,0E0,0E0,0E0],"parents":[2147483647,0,0,1,1,2,2,3,3,4,4,5,5,6,6,7,7,8,8,9,9,10,10,11,11,13,13,14,14,15,15,18,18,19,19,20,20,23,23,24,24,25,25,29,29,30,30,33,33,34,34,35,35,36,36,37,37],"right_children":[2,4,6,8,10,12,14,16,18,20,22,24,-1,26,28,30,-1,-1,32,34,36,-1,-1,38,40,42,-1,-1,-1,44,46,-1,-1,48,50,52,54,56,-1,-1,-1,-1,-1,-1,-1,-1,-1,-1,-1,-1,-1,-1,-1,-1,-1,-1,-1],"split_conditions":[1.452127E-1,3E0,5.5E1,1E0,2.54667E1,7.2825533E-1,9.7E1,3.0962843E-1,2.85E1,2E0,3E0,7.92E1,1.0716956E-2,9.10792E1,2.85E1,7.4639666E-1,2.9952716E-2,8.049619E-2,2.7E1,4.74E2,1.9E1,-1.8514482E-2,-6.673829E-2,6.6335243E-1,3.92E2,2.6553795E-1,-5.202917E-2,6.4042876E-3,-6.1327543E-2,1E0,2.6E1,-5.443063E-2,2.4796037E-2,5.3099376E-1,6.85E2,5.4E1,3.98E2,1.9887626E-1,5.688986E-3,-2.6135873E-2,3.4948736E-2,1.9637097E-2,8.3741404E-2,1.0411341E-1,3.3287182E-2,1.9478764E-4,7.20457E-2,1.0551431E-1,1.834983E-2,-1.733537E-2,6.4436994E-2,-4.64724E-2,8.922905E-2,2.9411169E-2,-6.1368935E-2,-2.5031295E-2,-6.250485E-2],"split_indices":[82,1,7,2,6,56,7,65,3,8,4,6,0,6,3,83,0,0,6,0,3,0,0,208,0,82,0,0,0,204,3,0,0,80,0,0,0,82,0,0,0,0,0,0,0,0,0,0,0,0,0,0,0,0,0,0,0],"split_type":[0,0,0,0,0,0,0,0,0,0,0,0,0,0,0,0,0,0,0,0,0,0,0,0,0,0,0,0,0,0,0,0,0,0,0,0,0,0,0,0,0,0,0,0,0,0,0,0,0,0,0,0,0,0,0,0,0],"sum_hessian":[1.2406051E2,5.4940563E1,6.911994E1,2.9561258E1,2.5379305E1,6.051592E1,8.604025E0,2.5263758E1,4.2975016E0,2.0562267E1,4.8170385E0,5.871399E1,1.8019302E0,6.0583E0,2.5457244E0,2.4094484E1,1.1692718E0,1.90203E0,2.3954718E0,9.037987E0,1.1524281E1,1.1130539E0,3.7039847E0,5.6486282E1,2.2277052E0,5.054766E0,1.0035338E0,1.1377904E0,1.407934E0,2.0981216E1,3.1132693E0,1.1569985E0,1.2384733E0,4.1789126E0,4.859074E0,4.811026E0,6.713254E0,5.4806934E1,1.679351E0,1.0917214E0,1.135984E0,1.9283618E0,3.1264045E0,1.9636957E1,1.3442578E0,1.335079E0,1.7781904E0,2.4736526E0,1.7052602E0,2.668596E0,2.1904783E0,1.4438891E0,3.367137E0,3.460124E0,3.2531302E0,6.829215E0,4.797772E1],"tree_param":{"num_deleted":"0","num_feature":"209","num_nodes":"57","size_leaf_vector":"1"}},{"base_weights":[1.2899844E-3,6.8480384E-1,-5.473238E-1,1.1161758E0,1.689616E-1,-6.588427E-1,2.1355611E-1,1.2164334E0,4.1446394E-1,4.8342308E-1,-5.8023024E-1,-1.4540432E-1,-7.107112E-1,4.4480976E-1,-5.6912873E-2,1.2412125E0,2.7790127E-2,7.7550255E-2,-2.3574121E-1,8.912444E-2,2.546783E-1,1.9738923E-1,-7.4671045E-2,-6.504861E-2,3.0702507E-1,-7.371668E-1,5.417553E-3,8.6714005E-1,-2.464624E-1,1.2725855E0,2.2540867E-2,-5.3015884E-2,2.3736648E-2,7.095688E-1,-9.291205E-2,7.78998E-2,-5.8375154E-2,-5.3056702E-2,7.5228935E-1,-2.8717613E-1,-7.951588E-1,1.4129506E-2,9.140526E-2,-3.3364628E-2,1.8510164E-3,1.004894E-1,4.6964303E-2,1.6195955E-2,9.048173E-2,3.141826E-2,-8.835312E-2,-2.495365E-4,8.132989E-2,1.6181806E-2,-6.986142E-2,-3.1215588E-2,-6.384587E-2],"categories":[],"categories_nodes":[],"categories_segments":[],"categories_sizes":[],"default_left":[0,0,0,0,0,0,0,0,0,0,0,0,0,0,0,0,0,0,0,0,0,0,0,0,0,0,0,0,0,0,0,0,0,0,0,0,0,0,0,0,0,0,0,0,0,0,0,0,0,0,0,0,0,0,0,0,0],"id":10,"left_children":[1,3,5,7,9,11,13,15,17,19,21,23,25,27,-1,29,-1,-1,31,-1,33,35,-1,-1,37,39,-1,41,43,45,-1,-1,-1,47,49,-1,-1,-1,51,53,55,-1,-1,-1,-1,-1,-1,-1,-1,-1,-1,-1,-1,-1,-1,-1,-1],"loss_changes":[4.6252003E1,1.2031925E1,5.9467506E0,1.5873833E0,6.450415E0,1.4924927E0,2.474255E0,7.450104E-2,2.351938E0,2.7596698E0,2.8442664E0,2.4726717E0,1.1752453E0,2.6388679E0,0E0,3.3599854E-1,0E0,0E0,1.0999581E0,0E0,2.5343728E0,3.8362503E0,0E0,0E0,2.7415798E0,1.1413326E0,0E0,1.0537925E0,2.2233969E-1,1.7202759E-1,0E0,0E0,0E0,1.4263382E0,5.8995624E0,0E0,0E0,0E0,9.78266E-1,2.6498697E0,6.224499E-1,0E0,0E0,0E0,0E0,0E0,0E0,0E0,0E0,0E0,0E0,0E0,0E0,0E0,0E0,0E0,0E0],"parents":[2147483647,0,0,1,1,2,2,3,3,4,4,5,5,6,6,7,7,8,8,9,9,10,10,11,11,12,12,13,13,15,15,18,18,20,20,21,21,24,24,25,25,27,27,28,28,29,29,33,33,34,34,38,38,39,39,40,40],"right_children":[2,4,6,8,10,12,14,16,18,20,22,24,26,28,-1,30,-1,-1,32,-1,34,36,-1,-1,38,40,-1,42,44,46,-1,-1,-1,48,50,-1,-1,-1,52,54,56,-1,-1,-1,-1,-1,-1,-1,-1,-1,-1,-1,-1,-1,-1,-1,-1],"split_conditions":[1.452127E-1,3E0,5.5E1,1E0,2.1E1,4.8E1,1.05E2,8.53E2,2.85E1,1E1,2E0,3E1,6.6335243E-1,4.3E1,-5.6912873E-2,3.9681157E-1,2.7790127E-2,7.7550255E-2,2.7E1,8.912444E-2,8.05E0,5.36E2,-7.4671045E-2,-6.504861E-2,1.89E2,1.9887626E-1,5.417553E-3,8.1E1,4.58E2,6.2948614E-1,2.2540867E-2,-5.3015884E-2,2.3736648E-2,6.6550136E-1,5.3099376E-1,7.78998E-2,-5.8375154E-2,-5.3056702E-2,3.2E1,1E0,1E0,1.4129506E-2,9.140526E-2,-3.3364628E-2,1.8510164E-3,1.004894E-1,4.6964303E-2,1.6195955E-2,9.048173E-2,3.141826E-2,-8.835312E-2,-2.495365E-4,8.132989E-2,1.6181806E-2,-6.986142E-2,-3.1215588E-2,-6.384587E-2],"split_indices":[82,1,7,2,6,7,7,0,3,3,4,6,208,3,0,107,0,0,6,0,6,0,0,0,0,82,0,7,0,83,0,0,0,80,80,0,0,0,3,4,8,0,0,0,0,0,0,0,0,0,0,0,0,0,0,0,0],"split_type":[0,0,0,0,0,0,0,0,0,0,0,0,0,0,0,0,0,0,0,0,0,0,0,0,0,0,0,0,0,0,0,0,0,0,0,0,0,0,0,0,0,0,0,0,0,0,0,0,0,0,0,0,0,0,0,0,0],"sum_hessian":[1.2134403E2,5.3918777E1,6.742525E1,2.8729776E1,2.5189001E1,5.8923233E1,8.502018E0,2.449632E1,4.233456E0,1.7991919E1,7.1970835E0,5.7553368E0,5.3167896E1,7.30687E0,1.1951485E0,2.3345139E1,1.1511831E0,1.8655852E0,2.3678708E0,3.3802648E0,1.4611653E1,2.688631E0,4.508453E0,1.8640242E0,3.8913124E0,5.1486637E1,1.6812588E0,4.377835E0,2.929035E0,2.2250196E1,1.0949411E0,1.1266341E0,1.2412366E0,5.877887E0,8.733767E0,1.4091496E0,1.2794814E0,1.0073934E0,2.883919E0,6.5572715E0,4.4929367E1,2.01799E0,2.359845E0,1.3214308E0,1.607604E0,1.9181116E1,3.0690813E0,3.6681857E0,2.209701E0,6.3517814E0,2.3819854E0,1.1827964E0,1.7011228E0,4.056215E0,2.5010564E0,6.881042E0,3.8048325E1],"tree_param":{"num_deleted":"0","num_feature":"209","num_nodes":"57","size_leaf_vector":"1"}},{"base_weights":[2.454934E-3,6.5317965E-1,-5.220325E-1,1.0736251E0,1.6061379E-1,-6.173751E-1,2.9030305E-1,1.2283921E0,5.7007354E-1,4.561329E-1,-5.5522746E-1,-6.434197E-1,1.1468682E-2,7.474536E-1,-4.7970736E-1,1.3015763E0,5.517279E-1,9.026809E-1,-2.2887981E-1,8.4751494E-2,2.3908442E-1,1.8847822E-1,-7.2004706E-2,-6.6580576E-1,5.1591783E-3,5.453796E-3,7.319232E-2,-5.8815096E-2,6.1820284E-3,2.2347968E-2,1.0106795E-1,-1.8281122E-3,6.489463E-2,2.0519556E-2,9.7925454E-1,-5.1665798E-2,2.27265E-2,6.7026913E-1,-9.2445455E-2,7.400521E-2,-5.683255E-2,-6.8450063E-1,1.0579971E-2,1.844684E-2,8.2800545E-2,1.5229088E-2,8.5482806E-2,2.9386217E-2,-8.4893E-2,-2.8643183E-2,-5.5614293E-2],"categories":[],"categories_nodes":[],"categories_segments":[],"categories_sizes":[],"default_left":[0,0,0,0,0,0,0,0,0,0,0,0,0,0,0,0,0,0,0,0,0,0,0,0,0,0,0,0,0,0,0,0,0,0,0,0,0,0,0,0,0,0,0,0,0,0,0,0,0,0,0],"id":11,"left_children":[1,3,5,7,9,11,13,15,17,19,21,23,-1,25,27,29,31,33,35,-1,37,39,-1,41,-1,-1,-1,-1,-1,-1,-1,-1,-1,-1,43,-1,-1,45,47,-1,-1,49,-1,-1,-1,-1,-1,-1,-1,-1,-1],"loss_changes":[4.1153156E1,1.097179E1,5.35042E0,1.5485039E0,5.7441955E0,1.3036003E0,3.066749E0,3.3200836E-1,2.505145E0,2.4973216E0,2.6002517E0,9.753399E-1,0E0,7.333915E-1,6.5946424E-1,4.4784546E-1,7.084551E-1,3.601885E-2,1.0259949E0,0E0,2.2891045E0,3.5184972E0,0E0,9.5061874E-1,0E0,0E0,0E0,0E0,0E0,0E0,0E0,0E0,0E0,0E0,2.0755434E-1,0E0,0E0,1.280663E0,5.319406E0,0E0,0E0,6.74572E-1,0E0,0E0,0E0,0E0,0E0,0E0,0E0,0E0,0E0],"parents":[2147483647,0,0,1,1,2,2,3,3,4,4,5,5,6,6,7,7,8,8,9,9,10,10,11,11,13,13,14,14,15,15,16,16,17,17,18,18,20,20,21,21,23,23,34,34,37,37,38,38,41,41],"right_children":[2,4,6,8,10,12,14,16,18,20,22,24,-1,26,28,30,32,34,36,-1,38,40,-1,42,-1,-1,-1,-1,-1,-1,-1,-1,-1,-1,44,-1,-1,46,48,-1,-1,50,-1,-1,-1,-1,-1,-1,-1,-1,-1],"split_conditions":[1.452127E-1,3E0,6.9E1,4.05E1,2.1E1,7.2825533E-1,9.7E1,7.4639666E-1,1E0,1E1,2E0,6.6335243E-1,1.1468682E-2,8.1E1,3.675E1,5.6E1,2.6E1,2.65E2,2.7E1,8.4751494E-2,8.05E0,5.36E2,-7.2004706E-2,5.838974E-1,5.1591783E-3,5.453796E-3,7.319232E-2,-5.8815096E-2,6.1820284E-3,2.2347968E-2,1.0106795E-1,-1.8281122E-3,6.489463E-2,2.0519556E-2,4.5E1,-5.1665798E-2,2.27265E-2,6.6550136E-1,5.3099376E-1,7.400521E-2,-5.683255E-2,1E0,1.0579971E-2,1.844684E-2,8.2800545E-2,1.5229088E-2,8.5482806E-2,2.9386217E-2,-8.4893E-2,-2.8643183E-2,-5.5614293E-2],"split_indices":[82,1,7,3,6,56,7,83,2,3,4,208,0,7,6,0,3,0,6,0,6,0,0,108,0,0,0,0,0,0,0,0,0,0,3,0,0,80,80,0,0,8,0,0,0,0,0,0,0,0,0],"split_type":[0,0,0,0,0,0,0,0,0,0,0,0,0,0,0,0,0,0,0,0,0,0,0,0,0,0,0,0,0,0,0,0,0,0,0,0,0,0,0,0,0,0,0,0,0,0,0,0,0,0,0],"sum_hessian":[1.1857967E2,5.2811623E1,6.576805E1,2.7855232E1,2.4956388E1,5.9074566E1,6.6934896E0,2.0205576E1,7.649657E0,1.7920933E1,7.0354557E0,5.730182E1,1.7727468E0,4.2183657E0,2.4751241E0,1.7400154E1,2.8054216E0,5.309474E0,2.340183E0,3.341139E0,1.4579793E1,2.668218E0,4.367238E0,5.5618767E1,1.683053E0,1.4004087E0,2.8179567E0,1.3492353E0,1.1258888E0,1.0902374E0,1.6309917E1,1.3137426E0,1.491679E0,1.0723766E0,4.2370973E0,1.0966513E0,1.2435318E0,5.8932896E0,8.686504E0,1.4240721E0,1.2441458E0,5.450751E1,1.1112546E0,1.0480745E0,3.1890228E0,3.6718323E0,2.221457E0,6.350846E0,2.3356586E0,9.863679E0,4.4643833E1],"tree_param":{"num_deleted":"0","num_feature":"209","num_nodes":"51","size_leaf_vector":"1"}},{"base_weights":[5.0375243E-3,6.245234E-1,-4.9513394E-1,1.0354209E0,1.5273644E-1,-5.996498E-1,1.9595255E-1,1.0819379E0,-4.190331E-3,4.3097684E-1,-5.3207976E-1,-1.1049666E-1,-6.5094364E-1,4.0991917E-1,-5.383249E-2,1.1222504E0,4.2177434E-3,9.7810364E-1,1.9034769E-1,1.7982095E-1,-6.94947E-2,-4.498054E-1,5.7259094E-2,-6.7658085E-1,4.9132477E-3,8.1801623E-1,-2.4929218E-1,1.2248688E0,6.874281E-1,9.444481E-2,2.7034273E-2,5.465944E-1,-2.0624633E-1,7.042048E-2,-5.5360433E-2,-6.34873E-2,-4.1026536E-2,-2.3773754E-1,-7.3531884E-1,7.710563E-2,-1.0925629E-3,-3.1639047E-2,-4.8647435E-5,9.8030195E-2,3.9933078E-2,3.6153712E-3,8.920213E-2,-3.240477E-2,5.8774192E-2,-7.561979E-2,1.42413275E-2,3.0630616E-2,-3.157742E-2,1.8264294E-2,-6.661907E-2,-2.8141113E-2,-5.930983E-2],"categories":[],"categories_nodes":[],"categories_segments":[],"categories_sizes":[],"default_left":[0,0,0,0,0,0,0,0,0,0,0,0,0,0,0,0,0,0,0,0,0,0,0,0,0,0,0,0,0,0,0,0,0,0,0,0,0,0,0,0,0,0,0,0,0,0,0,0,0,0,0,0,0,0,0,0,0],"id":12,"left_children":[1,3,5,7,9,11,13,15,-1,17,19,21,23,25,-1,27,-1,29,31,33,-1,35,-1,37,-1,39,41,43,45,-1,-1,47,49,-1,-1,-1,51,53,55,-1,-1,-1,-1,-1,-1,-1,-1,-1,-1,-1,-1,-1,-1,-1,-1,-1,-1],"loss_changes":[3.65411E1,1.0053951E1,4.8308554E0,1.4809799E0,5.1254196E0,1.356453E0,2.1175253E0,1.0486851E0,0E0,2.2921112E0,2.3773222E0,2.3028173E0,9.869919E-1,2.4080374E0,0E0,3.1004715E-1,0E0,5.026717E-1,2.1353385E0,3.232458E0,0E0,8.391355E-1,0E0,1.10466E0,0E0,9.408374E-1,1.670239E-1,4.202156E-1,2.2556226E0,0E0,0E0,2.1517892E0,2.5743282E0,0E0,0E0,0E0,8.047156E-1,2.5133758E0,5.6832504E-1,0E0,0E0,0E0,0E0,0E0,0E0,0E0,0E0,0E0,0E0,0E0,0E0,0E0,0E0,0E0,0E0,0E0,0E0],"parents":[2147483647,0,0,1,1,2,2,3,3,4,4,5,5,6,6,7,7,9,9,10,10,11,11,12,12,13,13,15,15,17,17,18,18,19,19,21,21,23,23,25,25,26,26,27,27,28,28,31,31,32,32,36,36,37,37,38,38],"right_children":[2,4,6,8,10,12,14,16,-1,18,20,22,24,26,-1,28,-1,30,32,34,-1,36,-1,38,-1,40,42,44,46,-1,-1,48,50,-1,-1,-1,52,54,56,-1,-1,-1,-1,-1,-1,-1,-1,-1,-1,-1,-1,-1,-1,-1,-1,-1,-1],"split_conditions":[1.452127E-1,3E0,5.5E1,4.9160096E-1,2.1E1,4.8E1,1.05E2,4.1272327E-1,-4.190331E-3,1.6E1,2E0,1E0,6.6335243E-1,4.3E1,-5.383249E-2,4.05E1,4.2177434E-3,5.3099376E-1,3.98E2,5.36E2,-6.94947E-2,3.17548E-1,5.7259094E-2,1.9887626E-1,4.9132477E-3,6.5E1,4.58E2,7.4639666E-1,2.9E1,9.444481E-2,2.7034273E-2,2.05E1,5.36E2,7.042048E-2,-5.5360433E-2,-6.34873E-2,1.3E1,1E0,1E0,7.710563E-2,-1.0925629E-3,-3.1639047E-2,-4.8647435E-5,9.8030195E-2,3.9933078E-2,3.6153712E-3,8.920213E-2,-3.240477E-2,5.8774192E-2,-7.561979E-2,1.42413275E-2,3.0630616E-2,-3.157742E-2,1.8264294E-2,-6.661907E-2,-2.8141113E-2,-5.930983E-2],"split_indices":[82,1,7,36,6,7,7,65,0,3,4,4,208,3,0,3,0,80,0,0,0,82,0,82,0,6,0,83,6,0,0,3,0,0,0,0,7,4,8,0,0,0,0,0,0,0,0,0,0,0,0,0,0,0,0,0,0],"split_type":[0,0,0,0,0,0,0,0,0,0,0,0,0,0,0,0,0,0,0,0,0,0,0,0,0,0,0,0,0,0,0,0,0,0,0,0,0,0,0,0,0,0,0,0,0,0,0,0,0,0,0,0,0,0,0,0,0],"sum_hessian":[1.1593394E2,5.1678757E1,6.425519E1,2.6983286E1,2.4695469E1,5.5929104E1,8.326082E0,2.5888351E1,1.0949345E0,1.7824183E1,6.8712864E0,5.6075945E0,5.0321507E1,7.1930504E0,1.1330317E0,2.4818785E1,1.0695674E0,4.5084314E0,1.3315751E1,2.6441472E0,4.2271395E0,4.3889275E0,1.2186671E0,4.863677E1,1.6847415E0,4.2939186E0,2.8991315E0,1.8609892E1,6.208892E0,2.3842714E0,2.1241603E0,6.815448E0,6.5003033E0,1.4347816E0,1.2093655E0,1.6839626E0,2.7049649E0,6.3372564E0,4.229951E1,3.2413368E0,1.052582E0,1.3001736E0,1.5989579E0,1.5841621E1,2.7682707E0,3.213047E0,2.9958448E0,1.1685902E0,5.6468577E0,1.6382251E0,4.862078E0,1.2050287E0,1.4999361E0,4.002095E0,2.3351612E0,6.6832023E0,3.561631E1],"tree_param":{"num_deleted":"0","num_feature":"209","num_nodes":"57","size_leaf_vector":"1"}},{"base_weights":[5.7069575E-3,5.82817E-1,-4.838604E-1,1.0097061E0,1.0590208E-1,-5.760809E-1,2.649596E-1,1.1809353E0,4.8824653E-1,3.4665638E-1,-6.7383283E-1,-1.04667045E-1,-6.259399E-1,6.930647E-1,-4.5706454E-1,1.2564888E0,5.0912803E-1,8.5078466E-1,-2.8857154E-1,4.5771977E-1,-2.5044093E-1,8.380712E-3,-8.53019E-1,-6.075336E-2,3.1308973E-1,-6.510986E-1,4.679136E-3,4.5757475E-3,6.8405025E-2,6.9372444E-3,-5.706506E-2,9.7650595E-2,2.2514205E-2,-3.466657E-3,6.1826784E-2,1.9131178E-2,9.247901E-1,-5.046722E-2,1.2139138E-2,5.46226E-1,-3.301304E-2,-5.706467E-2,2.6235554E-2,-1.9622013E-2,-7.134818E-2,-2.153678E-2,5.6358617E-2,-5.380422E-1,-8.9707965E-1,1.6607305E-2,7.866488E-2,2.2549933E-2,7.067167E-2,-1.3630133E-2,-4.8593167E-2,-7.0817396E-2,-1.1403181E-2],"categories":[],"categories_nodes":[],"categories_segments":[],"categories_sizes":[],"default_left":[0,0,0,0,0,0,0,0,0,0,0,0,0,0,0,0,0,0,0,0,0,0,0,0,0,0,0,0,0,0,0,0,0,0,0,0,0,0,0,0,0,0,0,0,0,0,0,0,0,0,0,0,0,0,0,0,0],"id":13,"left_children":[1,3,5,7,9,11,13,15,17,19,21,23,25,27,29,31,33,35,37,39,41,-1,43,-1,45,47,-1,-1,-1,-1,-1,-1,-1,-1,-1,-1,49,-1,-1,51,-1,-1,-1,-1,-1,-1,-1,53,55,-1,-1,-1,-1,-1,-1,-1,-1],"loss_changes":[3.2566536E1,1.0662655E1,4.4596434E0,1.9052925E0,5.133654E0,1.2470875E0,2.642392E0,3.8661194E-1,2.660708E0,1.4810414E0,1.0099761E0,2.1814845E0,9.1174316E-1,6.531627E-1,6.385573E-1,3.706932E-1,6.9027555E-1,3.303814E-2,7.105619E-1,1.6491678E0,1.4542488E0,0E0,6.5397024E-2,0E0,1.4866959E0,8.6935425E-1,0E0,0E0,0E0,0E0,0E0,0E0,0E0,0E0,0E0,0E0,2.0805311E-1,0E0,0E0,1.3294525E0,0E0,0E0,0E0,0E0,0E0,0E0,0E0,1.283947E0,3.4159374E-1,0E0,0E0,0E0,0E0,0E0,0E0,0E0,0E0],"parents":[2147483647,0,0,1,1,2,2,3,3,4,4,5,5,6,6,7,7,8,8,9,9,10,10,11,11,12,12,13,13,14,14,15,15,16,16,17,17,18,18,19,19,20,20,22,22,24,24,25,25,36,36,39,39,47,47,48,48],"right_children":[2,4,6,8,10,12,14,16,18,20,22,24,26,28,30,32,34,36,38,40,42,-1,44,-1,46,48,-1,-1,-1,-1,-1,-1,-1,-1,-1,-1,50,-1,-1,52,-1,-1,-1,-1,-1,-1,-1,54,56,-1,-1,-1,-1,-1,-1,-1,-1],"split_conditions":[1.6212733E-1,3E0,6.9E1,4.05E1,2.2525E1,4.8E1,9.7E1,7.4639666E-1,1E0,2.85E1,1.13E2,3E1,6.6335243E-1,8.1E1,2.85E1,3.0962843E-1,2.6E1,2.65E2,2.7E1,5.2358615E-1,1.57417E1,8.380712E-3,7E0,-6.075336E-2,3.2E1,3.25E1,4.679136E-3,4.5757475E-3,6.8405025E-2,6.9372444E-3,-5.706506E-2,9.7650595E-2,2.2514205E-2,-3.466657E-3,6.1826784E-2,1.9131178E-2,4.5E1,-5.046722E-2,1.2139138E-2,2.7E1,-3.301304E-2,-5.706467E-2,2.6235554E-2,-1.9622013E-2,-7.134818E-2,-2.153678E-2,5.6358617E-2,2.5234398E-1,6.2E1,1.6607305E-2,7.866488E-2,2.2549933E-2,7.067167E-2,-1.3630133E-2,-4.8593167E-2,-7.0817396E-2,-1.1403181E-2],"split_indices":[82,1,7,3,6,7,7,83,2,3,0,6,208,7,3,65,3,0,6,74,6,0,3,0,3,3,0,0,0,0,0,0,0,0,0,0,3,0,0,3,0,0,0,0,0,0,0,82,3,0,0,0,0,0,0,0,0],"split_type":[0,0,0,0,0,0,0,0,0,0,0,0,0,0,0,0,0,0,0,0,0,0,0,0,0,0,0,0,0,0,0,0,0,0,0,0,0,0,0,0,0,0,0,0,0,0,0,0,0,0,0,0,0,0,0,0,0],"sum_hessian":[1.1326768E2,5.1898453E1,6.1369225E1,2.6796028E1,2.5102427E1,5.4845448E1,6.5237784E0,1.9220135E1,7.5758934E0,1.9604633E1,5.497793E0,5.542323E0,4.9303123E1,4.1206546E0,2.403124E0,1.6494766E1,2.725367E0,5.100358E0,2.4755356E0,1.6726784E1,2.8778489E0,1.0910175E0,4.4067755E0,1.7122215E0,3.8301015E0,4.761679E1,1.6863308E0,1.3893838E0,2.7312708E0,1.1031426E0,1.2999815E0,1.5400222E1,1.0945449E0,1.2958292E0,1.429538E0,1.0550005E0,4.045357E0,1.0692738E0,1.4062617E0,1.5582463E1,1.144321E0,1.4106896E0,1.4671594E0,1.1498905E0,3.256885E0,1.7621313E0,2.0679703E0,3.4806538E1,1.2810257E1,1.0241692E0,3.0211883E0,1.0704669E1,4.8777943E0,8.828641E0,2.5977894E1,1.1796323E1,1.0139337E0],"tree_param":{"num_deleted":"0","num_feature":"209","num_nodes":"57","size_leaf_vector":"1"}},{"base_weights":[5.899413E-3,5.5490506E-1,-4.6079817E-1,9.75967E-1,9.642982E-2,-5.6271774E-1,1.8074724E-1,1.1452918E0,4.6897325E-1,3.63069E-1,-5.418915E-1,-5.914446E-1,1.4163261E-2,3.855478E-1,-5.19567E-2,1.2206798E0,4.917745E-1,8.226261E-1,-2.8037655E-1,8.455759E-2,1.7803557E-1,6.716114E-2,-6.713955E-2,-6.240039E-1,1.0605811E-1,7.72871E-1,-2.3762828E-1,9.536644E-2,2.2593822E-2,-3.3174187E-3,6.0083903E-2,2.8567785E-2,7.436075E-2,-4.9227685E-2,1.1598821E-2,2.8700125E-1,-4.3696288E-2,5.647452E-2,-5.5492792E-2,-6.496329E-1,4.45625E-3,3.3809632E-2,-2.2307482E-2,7.286359E-2,-8.5127814E-4,-5.015294E-4,-3.228056E-2,4.2229448E-2,-1.6703064E-2,-3.4625117E-2,-5.607156E-2],"categories":[],"categories_nodes":[],"categories_segments":[],"categories_sizes":[],"default_left":[0,0,0,0,0,0,0,0,0,0,0,0,0,0,0,0,0,0,0,0,0,0,0,0,0,0,0,0,0,0,0,0,0,0,0,0,0,0,0,0,0,0,0,0,0,0,0,0,0,0,0],"id":14,"left_children":[1,3,5,7,9,11,13,15,17,19,21,23,-1,25,-1,27,29,31,33,-1,35,37,-1,39,41,43,45,-1,-1,-1,-1,-1,-1,-1,-1,47,-1,-1,-1,49,-1,-1,-1,-1,-1,-1,-1,-1,-1,-1,-1],"loss_changes":[2.889723E1,9.908963E0,4.088174E0,1.7722416E0,4.6076903E0,1.2527905E0,1.8976805E0,3.5905838E-1,2.4642532E0,2.469376E0,1.7895532E0,1.2277966E0,0E0,2.120926E0,0E0,4.019909E-1,6.470512E-1,6.8377495E-2,6.655172E-1,0E0,1.525449E0,2.705226E0,0E0,8.970909E-1,5.702786E-1,8.187306E-1,1.6813661E-1,0E0,0E0,0E0,0E0,0E0,0E0,0E0,0E0,2.2365463E0,0E0,0E0,0E0,5.265064E-1,0E0,0E0,0E0,0E0,0E0,0E0,0E0,0E0,0E0,0E0,0E0],"parents":[2147483647,0,0,1,1,2,2,3,3,4,4,5,5,6,6,7,7,8,8,9,9,10,10,11,11,13,13,15,15,16,16,17,17,18,18,20,20,21,21,23,23,24,24,25,25,26,26,35,35,39,39],"right_children":[2,4,6,8,10,12,14,16,18,20,22,24,-1,26,-1,28,30,32,34,-1,36,38,-1,40,42,44,46,-1,-1,-1,-1,-1,-1,-1,-1,48,-1,-1,-1,50,-1,-1,-1,-1,-1,-1,-1,-1,-1,-1,-1],"split_conditions":[1.6212733E-1,3E0,5.5E1,4.05E1,2.1E1,7.2825533E-1,1.05E2,7.4639666E-1,1E0,7E0,2E0,7.92E1,1.4163261E-2,4.3E1,-5.19567E-2,3.4749776E-1,2.6E1,2.9E1,2.7E1,8.455759E-2,5.2358615E-1,5.36E2,-6.713955E-2,6.6335243E-1,5.152645E-1,6.5E1,2.9502344E-1,9.536644E-2,2.2593822E-2,-3.3174187E-3,6.0083903E-2,2.8567785E-2,7.436075E-2,-4.9227685E-2,1.1598821E-2,5.3099376E-1,-4.3696288E-2,5.647452E-2,-5.5492792E-2,3.42E2,4.45625E-3,3.3809632E-2,-2.2307482E-2,7.286359E-2,-8.5127814E-4,-5.015294E-4,-3.228056E-2,4.2229448E-2,-1.6703064E-2,-3.4625117E-2,-5.607156E-2],"split_indices":[82,1,7,3,6,56,7,83,2,3,4,6,0,3,0,107,3,6,6,0,74,0,0,208,204,6,82,0,0,0,0,0,0,0,0,80,0,0,0,0,0,0,0,0,0,0,0,0,0,0,0],"split_type":[0,0,0,0,0,0,0,0,0,0,0,0,0,0,0,0,0,0,0,0,0,0,0,0,0,0,0,0,0,0,0,0,0,0,0,0,0,0,0,0,0,0,0,0,0,0,0,0,0,0,0],"sum_hessian":[1.1078509E2,5.0816936E1,5.996815E1,2.5900911E1,2.4916023E1,5.185331E1,8.114842E0,1.8472511E1,7.428401E0,1.7878881E1,7.0371423E0,5.0149498E1,1.7038128E0,7.026124E0,1.088718E0,1.5783867E1,2.6886435E0,4.980219E0,2.4481823E0,2.4918818E0,1.5387E1,2.880829E0,4.156313E0,4.8013603E1,2.1358914E0,4.1848793E0,2.841245E0,1.4593421E1,1.1904463E0,1.2974826E0,1.391161E0,2.2776425E0,2.7025762E0,1.0402764E0,1.4079059E0,1.4003631E1,1.3833693E0,1.5936042E0,1.2872249E0,4.632578E1,1.6878277E0,1.0885844E0,1.0473069E0,3.1485288E0,1.0363504E0,1.763425E0,1.0778198E0,9.015936E0,4.987695E0,1.78317E1,2.8494078E1],"tree_param":{"num_deleted":"0","num_feature":"209","num_nodes":"51","size_leaf_vector":"1"}},{"base_weights":[7.137374E-3,5.4396397E-1,-4.277908E-1,9.332394E-1,1.2689553E-1,-5.1018757E-1,2.4160752E-1,9.8235005E-1,-7.58008E-3,3.6087924E-1,-4.7693646E-1,-5.3593993E-1,1.3442688E-2,6.443134E-1,-4.3723142E-1,6.340235E-1,1.1921612E0,8.152455E-2,1.8416928E-1,1.7821567E-1,-6.411338E-2,-8.6349785E-1,-4.456048E-1,3.339732E-3,6.4473055E-2,6.510226E-3,-5.482601E-2,9.0543777E-1,-2.4603799E-2,9.418658E-2,3.6439106E-2,5.614623E-1,-8.622804E-2,6.389597E-2,-5.152494E-2,1.136928E-1,-8.38382E-2,-6.444028E-1,-1.7218311E-1,2.492361E-2,8.05731E-2,2.7309159E-2,-4.8039313E-2,8.850836E-3,7.721605E-2,3.0323675E-2,-8.568697E-2,-4.902583E-2,6.1431028E-2,2.2777395E-2,-6.1446358E-2,-6.598484E-2,1.1840821E-2],"categories":[],"categories_nodes":[],"categories_segments":[],"categories_sizes":[],"default_left":[0,0,0,0,0,0,0,0,0,0,0,0,0,0,0,0,0,0,0,0,0,0,0,0,0,0,0,0,0,0,0,0,0,0,0,0,0,0,0,0,0,0,0,0,0,0,0,0,0,0,0,0,0],"id":15,"left_children":[1,3,5,7,9,11,13,15,-1,17,19,21,-1,23,25,27,29,-1,31,33,-1,35,37,-1,-1,-1,-1,39,41,-1,-1,43,45,-1,-1,47,-1,49,51,-1,-1,-1,-1,-1,-1,-1,-1,-1,-1,-1,-1,-1,-1],"loss_changes":[2.573765E1,7.89081E0,3.4826136E0,1.387392E0,3.7004836E0,1.0645924E0,2.2920752E0,1.020237E0,0E0,2.182288E0,1.9857765E0,1.1787081E0,0E0,6.1005354E-1,5.767172E-1,2.0371943E0,2.0727158E-2,0E0,1.6947553E0,2.6467357E0,0E0,2.7009215E0,2.2525768E0,0E0,0E0,0E0,0E0,4.180951E-1,1.2538786E0,0E0,0E0,1.3045785E0,5.7818947E0,0E0,0E0,2.1844118E0,0E0,4.3628683E0,4.7330027E0,0E0,0E0,0E0,0E0,0E0,0E0,0E0,0E0,0E0,0E0,0E0,0E0,0E0,0E0],"parents":[2147483647,0,0,1,1,2,2,3,3,4,4,5,5,6,6,7,7,9,9,10,10,11,11,13,13,14,14,15,15,16,16,18,18,19,19,21,21,22,22,27,27,28,28,31,31,32,32,35,35,37,37,38,38],"right_children":[2,4,6,8,10,12,14,16,-1,18,20,22,-1,24,26,28,30,-1,32,34,-1,36,38,-1,-1,-1,-1,40,42,-1,-1,44,46,-1,-1,48,-1,50,52,-1,-1,-1,-1,-1,-1,-1,-1,-1,-1,-1,-1,-1,-1],"split_conditions":[1.452127E-1,3E0,6.9E1,4.9160096E-1,2.1E1,7.2825533E-1,9.7E1,2.9E1,-7.58008E-3,7E0,2E0,7.75E0,1.3442688E-2,8.1E1,2.85E1,4.05E1,1.5155E2,8.152455E-2,8.05E0,5.36E2,-6.411338E-2,2.5234398E-1,3.874736E-1,3.339732E-3,6.4473055E-2,6.510226E-3,-5.482601E-2,2.04E2,1E0,9.418658E-2,3.6439106E-2,6.6550136E-1,5.3099376E-1,6.389597E-2,-5.152494E-2,6.95E0,-8.38382E-2,7.8792E0,7.925E0,2.492361E-2,8.05731E-2,2.7309159E-2,-4.8039313E-2,8.850836E-3,7.721605E-2,3.0323675E-2,-8.568697E-2,-4.902583E-2,6.1431028E-2,2.2777395E-2,-6.1446358E-2,-6.598484E-2,1.1840821E-2],"split_indices":[82,1,7,36,6,56,7,6,0,3,4,6,0,7,3,3,6,0,6,0,0,82,82,0,0,0,0,0,2,0,0,80,80,0,0,6,0,6,6,0,0,0,0,0,0,0,0,0,0,0,0,0,0],"split_type":[0,0,0,0,0,0,0,0,0,0,0,0,0,0,0,0,0,0,0,0,0,0,0,0,0,0,0,0,0,0,0,0,0,0,0,0,0,0,0,0,0,0,0,0,0,0,0,0,0,0,0,0,0],"sum_hessian":[1.0823779E2,4.833177E1,5.990602E1,2.4358696E1,2.3973074E1,5.3552094E1,6.353927E0,2.3302488E1,1.0562077E0,1.75679E1,6.405175E0,5.1838375E1,1.7137183E0,4.0200076E0,2.3339193E0,1.0271581E1,1.3030908E1,2.4303048E0,1.5137595E1,2.5364082E0,3.868767E0,9.355656E0,4.248272E1,1.3807621E0,2.6392455E0,1.091495E0,1.2424244E0,7.008647E0,3.262934E0,1.1239843E1,1.7910639E0,5.8702435E0,9.267351E0,1.4346231E0,1.1017852E0,2.0464005E0,7.3092546E0,2.3812468E1,1.8670254E1,2.2705553E0,4.738092E0,2.2510467E0,1.0118872E0,3.6574187E0,2.2128248E0,6.7498503E0,2.5175009E0,1.0152484E0,1.0311521E0,3.5936005E0,2.0218866E1,5.4088016E0,1.3261452E1],"tree_param":{"num_deleted":"0","num_feature":"209","num_nodes":"53","size_leaf_vector":"1"}},{"base_weights":[7.872051E-3,5.09619E-1,-4.1751242E-1,9.1648537E-1,8.493303E-2,-5.1172525E-1,1.6327843E-1,1.0734754E0,3.9288178E-1,2.8737274E-1,-6.0904413E-1,-8.146157E-1,-4.1202384E-1,3.592374E-1,-5.021434E-2,1.1480862E0,4.338813E-1,7.044444E-1,-2.2812268E-1,3.5880306E-1,-3.635506E-2,-6.0651094E-2,-6.78475E-2,3.996259E-3,-7.666298E-2,2.1604568E-1,-5.5625784E-1,7.309634E-1,-2.3111255E-1,8.968352E-2,1.671475E-2,-6.2251254E-3,5.6501556E-2,1.7320106E-2,6.892449E-2,4.5232275E-3,-3.138829E-2,4.4821528E-1,-1.5150331E-1,-2.2911986E-2,1.6816115E-2,4.330744E-2,-4.729214E-2,-2.372E-1,1.0110111E0,-6.2483233E-1,4.503133E-2,6.8918E-2,-5.516081E-4,-1.3681302E-4,-3.179804E-2,1.856649E-2,5.6665476E-2,-5.684345E-2,4.327582E-2,-4.475429E-2,5.7348963E-2,2.0655882E-2,9.399154E-2,-5.0580926E-2,1.8051509E-2],"categories":[],"categories_nodes":[],"categories_segments":[],"categories_sizes":[],"default_left":[0,0,0,0,0,0,0,0,0,0,0,0,0,0,0,0,0,0,0,0,0,0,0,0,0,0,0,0,0,0,0,0,0,0,0,0,0,0,0,0,0,0,0,0,0,0,0,0,0,0,0,0,0,0,0,0,0,0,0,0,0],"id":16,"left_children":[1,3,5,7,9,11,13,15,17,19,21,23,25,27,-1,29,31,33,35,37,-1,39,-1,41,-1,43,45,47,49,-1,-1,-1,-1,-1,-1,-1,-1,51,53,-1,-1,-1,-1,55,57,59,-1,-1,-1,-1,-1,-1,-1,-1,-1,-1,-1,-1,-1,-1,-1],"loss_changes":[2.3023144E1,8.472752E0,3.2783794E0,1.6472988E0,3.7314317E0,1.188777E0,1.6941674E0,3.9841843E-1,1.589235E0,1.2922469E0,9.237938E-1,1.9542694E0,3.7439098E0,1.8941377E0,0E0,4.49131E-1,6.5207225E-1,3.121059E-1,2.0217769E-1,9.4097877E-1,0E0,2.9073566E-1,0E0,1.5713316E0,0E0,3.191129E0,2.9776735E0,7.094803E-1,1.6714697E-1,0E0,0E0,0E0,0E0,0E0,0E0,0E0,0E0,8.3262324E-1,2.0278034E0,0E0,0E0,0E0,0E0,2.6270247E0,2.1862769E-1,1.5125475E0,0E0,0E0,0E0,0E0,0E0,0E0,0E0,0E0,0E0,0E0,0E0,0E0,0E0,0E0,0E0],"parents":[2147483647,0,0,1,1,2,2,3,3,4,4,5,5,6,6,7,7,8,8,9,9,10,10,11,11,12,12,13,13,15,15,16,16,17,17,18,18,19,19,21,21,23,23,25,25,26,26,27,27,28,28,37,37,38,38,43,43,44,44,45,45],"right_children":[2,4,6,8,10,12,14,16,18,20,22,24,26,28,-1,30,32,34,36,38,-1,40,-1,42,-1,44,46,48,50,-1,-1,-1,-1,-1,-1,-1,-1,52,54,-1,-1,-1,-1,56,58,60,-1,-1,-1,-1,-1,-1,-1,-1,-1,-1,-1,-1,-1,-1,-1],"split_conditions":[1.6212733E-1,3E0,5.5E1,4.4E1,2.2525E1,1.86E2,1.05E2,7.4639666E-1,1E0,5.5635244E-1,2.37E2,7.8292E0,3.06E2,4.3E1,-5.021434E-2,3.0962843E-1,2.6E1,3.5022536E-1,1E0,2.85E1,-3.635506E-2,2.9684973E-1,-6.78475E-2,2.5336635E-1,-7.666298E-2,2.69E2,7.92E1,6.5E1,2.9502344E-1,8.968352E-2,1.671475E-2,-6.2251254E-3,5.6501556E-2,1.7320106E-2,6.892449E-2,4.5232275E-3,-3.138829E-2,2.7E1,1.57417E1,-2.2911986E-2,1.6816115E-2,4.330744E-2,-4.729214E-2,1.59E1,3E0,6.6335243E-1,4.503133E-2,6.8918E-2,-5.516081E-4,-1.3681302E-4,-3.179804E-2,1.856649E-2,5.6665476E-2,-5.684345E-2,4.327582E-2,-4.475429E-2,5.7348963E-2,2.0655882E-2,9.399154E-2,-5.0580926E-2,1.8051509E-2],"split_indices":[82,1,7,3,6,0,7,83,2,74,0,6,0,3,0,65,3,83,4,3,0,80,0,82,0,0,6,6,82,0,0,0,0,0,0,0,0,3,6,0,0,0,0,6,1,208,0,0,0,0,0,0,0,0,0,0,0,0,0,0,0],"split_type":[0,0,0,0,0,0,0,0,0,0,0,0,0,0,0,0,0,0,0,0,0,0,0,0,0,0,0,0,0,0,0,0,0,0,0,0,0,0,0,0,0,0,0,0,0,0,0,0,0,0,0,0,0,0,0,0,0,0,0,0,0],"sum_hessian":[1.058725E2,4.8485336E1,5.7387157E1,2.4170752E1,2.4314587E1,4.9479733E1,7.907426E0,1.7787445E1,6.383307E0,1.927716E1,5.037426E0,1.0477819E1,3.900191E1,6.8615417E0,1.0458839E0,1.5217273E1,2.5701716E0,4.161226E0,2.2220812E0,1.8134745E1,1.1424155E0,2.1863594E0,2.8510664E0,2.3176575E0,8.160162E0,7.1909432E0,3.1810968E1,4.0642295E0,2.7973123E0,1.4193209E1,1.0240643E0,1.2644987E0,1.3056728E0,1.9449937E0,2.2162323E0,1.1552047E0,1.0668764E0,1.5534565E1,2.6001804E0,1.1368378E0,1.0495216E0,1.2647525E0,1.052905E0,5.026647E0,2.164296E0,3.0464651E1,1.3463184E0,3.0446115E0,1.019618E0,1.7391431E0,1.0581691E0,1.0490493E1,5.044072E0,1.3969862E0,1.203194E0,3.9967554E0,1.0298917E0,1.0654781E0,1.098818E0,2.9022915E1,1.4417354E0],"tree_param":{"num_deleted":"0","num_feature":"209","num_nodes":"61","size_leaf_vector":"1"}},{"base_weights":[9.364331E-3,4.851688E-1,-3.9535558E-1,8.8653433E-1,7.7036664E-2,-4.7455683E-1,2.2046487E-1,1.0573434E0,4.059858E-1,3.0463254E-1,-4.9219468E-1,-4.5280304E-2,-5.2319384E-1,6.003375E-1,-4.1905096E-1,1.1381938E0,4.1974837E-1,7.43895E-1,-2.7399337E-1,7.835187E-2,1.329006E-1,7.088991E-2,-6.2172484E-2,-5.596674E-2,3.3873522E-1,-4.1475514E-1,-7.6618266E-1,2.2194763E-3,6.0962863E-2,6.1146133E-3,-5.27431E-2,8.962947E-2,1.6629884E-2,-5.9559187E-3,5.5027973E-2,2.4267346E-2,6.875995E-2,-3.3334427E-2,3.805089E-3,4.0699863E-1,-1.5490766E-1,5.138693E-2,-5.1956017E-2,-1.7837834E-2,5.5421647E-2,-4.636497E-1,2.6093174E-2,-4.2328057E-1,-9.464409E-1,-1.8536473E-2,4.938702E-2,3.1849477E-2,-3.150353E-2,-4.1411307E-2,6.3224286E-3,-6.001852E-2,4.8636433E-2,-7.8819014E-2,-1.143509E-2],"categories":[],"categories_nodes":[],"categories_segments":[],"categories_sizes":[],"default_left":[0,0,0,0,0,0,0,0,0,0,0,0,0,0,0,0,0,0,0,0,0,0,0,0,0,0,0,0,0,0,0,0,0,0,0,0,0,0,0,0,0,0,0,0,0,0,0,0,0,0,0,0,0,0,0,0,0,0,0],"id":17,"left_children":[1,3,5,7,9,11,13,15,17,19,21,23,25,27,29,31,33,35,37,-1,39,41,-1,-1,43,45,47,-1,-1,-1,-1,-1,-1,-1,-1,-1,-1,-1,-1,49,51,-1,-1,-1,-1,53,-1,55,57,-1,-1,-1,-1,-1,-1,-1,-1,-1,-1],"loss_changes":[2.0318472E1,7.874673E0,2.886118E0,1.5695896E0,3.4065466E0,1.0379314E0,1.9962027E0,4.1625786E-1,2.0441127E0,2.221867E0,1.492776E0,1.9403306E0,8.8316345E-1,5.722245E-1,5.218238E-1,5.066776E-1,6.123972E-1,1.1176944E-1,2.1018341E-1,0E0,1.3427705E0,2.234317E0,0E0,0E0,1.2691154E0,1.4177656E0,3.9573145E-1,0E0,0E0,0E0,0E0,0E0,0E0,0E0,0E0,0E0,0E0,0E0,0E0,1.5750567E0,1.5056618E0,0E0,0E0,0E0,0E0,1.6028547E0,0E0,3.0433378E0,4.7314835E-1,0E0,0E0,0E0,0E0,0E0,0E0,0E0,0E0,0E0,0E0],"parents":[2147483647,0,0,1,1,2,2,3,3,4,4,5,5,6,6,7,7,8,8,9,9,10,10,11,11,12,12,13,13,14,14,15,15,16,16,17,17,18,18,20,20,21,21,24,24,25,25,26,26,39,39,40,40,45,45,47,47,48,48],"right_children":[2,4,6,8,10,12,14,16,18,20,22,24,26,28,30,32,34,36,38,-1,40,42,-1,-1,44,46,48,-1,-1,-1,-1,-1,-1,-1,-1,-1,-1,-1,-1,50,52,-1,-1,-1,-1,54,-1,56,58,-1,-1,-1,-1,-1,-1,-1,-1,-1,-1],"split_conditions":[1.6212733E-1,3E0,6.9E1,4.05E1,2.1E1,4.8E1,9.7E1,7.4639666E-1,1E0,7E0,2E0,3E1,3.25E1,8.1E1,2.85E1,3.4749776E-1,2.6E1,2.9E1,5.41E2,7.835187E-2,3.98E2,5.36E2,-6.2172484E-2,-5.596674E-2,3.2E1,6.028116E-1,4.02E2,2.2194763E-3,6.0962863E-2,6.1146133E-3,-5.27431E-2,8.962947E-2,1.6629884E-2,-5.9559187E-3,5.5027973E-2,2.4267346E-2,6.875995E-2,-3.3334427E-2,3.805089E-3,2.05E1,1.9E1,5.138693E-2,-5.1956017E-2,-1.7837834E-2,5.5421647E-2,2.9E1,2.6093174E-2,2.88E2,5.2E1,-1.8536473E-2,4.938702E-2,3.1849477E-2,-3.150353E-2,-4.1411307E-2,6.3224286E-3,-6.001852E-2,4.8636433E-2,-7.8819014E-2,-1.143509E-2],"split_indices":[82,1,7,3,6,7,7,83,2,3,4,6,3,7,3,107,3,6,0,0,0,0,0,0,3,107,0,0,0,0,0,0,0,0,0,0,0,0,0,3,3,0,0,0,0,3,0,0,3,0,0,0,0,0,0,0,0,0,0],"split_type":[0,0,0,0,0,0,0,0,0,0,0,0,0,0,0,0,0,0,0,0,0,0,0,0,0,0,0,0,0,0,0,0,0,0,0,0,0,0,0,0,0,0,0,0,0,0,0,0,0,0,0,0,0,0,0,0,0,0,0],"sum_hessian":[1.0351739E2,4.7488857E1,5.6028526E1,2.3351923E1,2.4136934E1,4.9847042E1,6.181484E0,1.6342695E1,7.0092287E0,1.7574825E1,6.5621104E0,5.2694216E0,4.457762E1,3.916402E0,2.265082E0,1.3806783E1,2.535912E0,4.619577E0,2.3896515E0,2.3527312E0,1.5222094E1,2.7513452E0,3.8107653E0,1.5312403E0,3.7381814E0,3.2694107E1,1.1883516E1,1.3716414E0,2.5447607E0,1.0785033E0,1.1865785E0,1.2713904E1,1.0928788E0,1.2676078E0,1.2683043E0,2.183307E0,2.4362702E0,1.3252504E0,1.0644013E0,7.584635E0,7.6374593E0,1.5817524E0,1.1695926E0,1.69788E0,2.0403013E0,3.1092806E1,1.6013002E0,5.2481813E0,6.635335E0,2.1110213E0,5.4736133E0,2.2084246E0,5.4290347E0,2.6762617E1,4.3301888E0,4.070001E0,1.1781805E0,5.577736E0,1.0575992E0],"tree_param":{"num_deleted":"0","num_feature":"209","num_nodes":"59","size_leaf_vector":"1"}},{"base_weights":[1.0361697E-2,4.77447E-1,-3.6634922E-1,8.467032E-1,1.0856662E-1,-4.4974247E-1,1.4923434E-1,8.978434E-1,-9.761802E-3,3.0878815E-1,-4.2978382E-1,-4.7627175E-1,1.4366752E-2,3.373053E-1,-4.8588745E-2,5.42596E-1,1.1196052E0,7.580704E-2,1.4464459E-1,1.761685E-1,-5.9354454E-2,-7.991465E-1,-3.856094E-1,6.9000214E-1,-2.2029826E-1,8.1325674E-1,-6.038045E-2,8.918595E-2,3.009697E-2,4.9935654E-1,-1.08254366E-1,5.8660876E-2,-4.8269268E-2,1.1454232E-2,-8.012226E-2,-5.715467E-1,-1.373526E-1,1.0962984E-2,7.4408814E-2,3.0815514E-4,-3.087356E-2,1.8324928E-2,7.4856654E-2,-3.0507639E-2,2.7755156E-2,6.3143917E-3,7.105448E-2,2.6700584E-2,-8.3088845E-2,6.292615E-3,-6.4751014E-2,-6.1554793E-2,1.3220246E-2],"categories":[],"categories_nodes":[],"categories_segments":[],"categories_sizes":[],"default_left":[0,0,0,0,0,0,0,0,0,0,0,0,0,0,0,0,0,0,0,0,0,0,0,0,0,0,0,0,0,0,0,0,0,0,0,0,0,0,0,0,0,0,0,0,0,0,0,0,0,0,0,0,0],"id":18,"left_children":[1,3,5,7,9,11,13,15,-1,17,19,21,-1,23,-1,25,27,-1,29,31,-1,33,35,37,39,41,43,-1,-1,45,47,-1,-1,-1,-1,49,51,-1,-1,-1,-1,-1,-1,-1,-1,-1,-1,-1,-1,-1,-1,-1,-1],"loss_changes":[1.8161522E1,6.1834707E0,2.524397E0,1.2597084E0,2.7406008E0,9.3242264E-1,1.5238931E0,1.115057E0,0E0,1.9528756E0,1.6682009E0,1.0900764E0,0E0,1.6669242E0,0E0,1.7372382E0,1.4827633E-1,0E0,1.483243E0,2.2049897E0,0E0,2.6071587E0,1.7321982E0,6.6998386E-1,1.6239652E-1,5.1412916E-1,7.671451E-1,0E0,0E0,1.1868256E0,5.0920234E0,0E0,0E0,0E0,0E0,4.301567E0,4.027019E0,0E0,0E0,0E0,0E0,0E0,0E0,0E0,0E0,0E0,0E0,0E0,0E0,0E0,0E0,0E0,0E0],"parents":[2147483647,0,0,1,1,2,2,3,3,4,4,5,5,6,6,7,7,9,9,10,10,11,11,13,13,15,15,16,16,18,18,19,19,21,21,22,22,23,23,24,24,25,25,26,26,29,29,30,30,35,35,36,36],"right_children":[2,4,6,8,10,12,14,16,-1,18,20,22,-1,24,-1,26,28,-1,30,32,-1,34,36,38,40,42,44,-1,-1,46,48,-1,-1,-1,-1,50,52,-1,-1,-1,-1,-1,-1,-1,-1,-1,-1,-1,-1,-1,-1,-1,-1],"split_conditions":[1.452127E-1,3E0,5.5E1,4.9160096E-1,2.1E1,7.2825533E-1,1.05E2,2.9E1,-9.761802E-3,7E0,2E0,7.75E0,1.4366752E-2,4.3E1,-4.8588745E-2,4.05E1,1.5155E2,7.580704E-2,8.05E0,5.36E2,-5.9354454E-2,2.5234398E-1,3.874736E-1,8.1E1,2.9502344E-1,2.04E2,2.2273089E-1,8.918595E-2,3.009697E-2,6.6550136E-1,5.3099376E-1,5.8660876E-2,-4.8269268E-2,1.1454232E-2,-8.012226E-2,8.1125E0,7.925E0,1.0962984E-2,7.4408814E-2,3.0815514E-4,-3.087356E-2,1.8324928E-2,7.4856654E-2,-3.0507639E-2,2.7755156E-2,6.3143917E-3,7.105448E-2,2.6700584E-2,-8.3088845E-2,6.292615E-3,-6.4751014E-2,-6.1554793E-2,1.3220246E-2],"split_indices":[82,1,7,36,6,56,7,6,0,3,4,6,0,3,0,3,6,0,6,0,0,82,82,7,82,0,83,0,0,80,80,0,0,0,0,6,6,0,0,0,0,0,0,0,0,0,0,0,0,0,0,0,0],"split_type":[0,0,0,0,0,0,0,0,0,0,0,0,0,0,0,0,0,0,0,0,0,0,0,0,0,0,0,0,0,0,0,0,0,0,0,0,0,0,0,0,0,0,0,0,0,0,0,0,0,0,0,0,0],"sum_hessian":[1.01222115E2,4.5071E1,5.615112E1,2.1876692E1,2.3194307E1,4.8443336E1,7.7077827E0,2.086525E1,1.0114417E0,1.7217318E1,5.97699E0,4.676605E1,1.677287E0,6.7030363E0,1.0047464E0,9.343823E0,1.1521427E1,2.2854848E0,1.4931832E1,2.425452E0,3.5515382E0,8.539589E0,3.822646E1,3.960493E0,2.7425435E0,6.2083263E0,3.135497E0,9.906857E0,1.6145699E0,5.809289E0,9.122543E0,1.4209505E0,1.0045015E0,1.9777405E0,6.561848E0,2.1111958E1,1.71145E1,1.9443525E0,2.0161405E0,1.7125996E0,1.029944E0,2.0917382E0,4.116588E0,1.7678772E0,1.3676198E0,3.6318326E0,2.1774566E0,6.668986E0,2.4535577E0,6.723021E0,1.4388937E1,4.8750076E0,1.2239493E1],"tree_param":{"num_deleted":"0","num_feature":"209","num_nodes":"53","size_leaf_vector":"1"}},{"base_weights":[1.060947E-2,4.485964E-1,-3.589242E-1,8.3605194E-1,6.983491E-2,-4.423897E-1,1.4041498E-1,9.9490595E-1,3.412294E-1,2.7515095E-1,-4.5802778E-1,-7.5894654E-1,-3.3997476E-1,3.8963726E-1,-4.038196E-1,1.0753475E0,3.684971E-1,-3.3352498E-2,6.421662E-2,7.782743E-1,4.8187125E-2,6.19466E-2,-5.8252923E-2,5.5058826E-2,-7.3221244E-2,2.700271E-1,-4.8706606E-1,7.2011545E-2,-8.490327E-2,-5.088686E-2,5.8030337E-3,8.4886655E-2,1.3732421E-2,-8.505248E-3,5.197761E-2,3.8648058E-2,-4.950409E-1,8.8160336E-2,1.0111938E-1,3.9037347E-1,-2.760939E-1,4.705159E-2,-4.9540482E-2,2.1042217E-2,-1.4818678E-2,-1.7375582E-1,9.8090035E-1,-5.553974E-1,4.3444596E-2,2.9952908E-2,-3.396138E-2,-5.1909033E-2,-4.9251574E-3,-1.12147285E-2,2.3594324E-2,5.5965915E-2,-5.0068926E-3,-7.2470926E-2,4.737214E-3,-4.0095434E-2,5.5944502E-2,2.138343E-2,8.9243665E-2,-4.5405317E-2,1.826336E-2],"categories":[],"categories_nodes":[],"categories_segments":[],"categories_sizes":[],"default_left":[0,0,0,0,0,0,0,0,0,0,0,0,0,0,0,0,0,0,0,0,0,0,0,0,0,0,0,0,0,0,0,0,0,0,0,0,0,0,0,0,0,0,0,0,0,0,0,0,0,0,0,0,0,0,0,0,0,0,0,0,0,0,0,0,0],"id":19,"left_children":[1,3,5,7,9,11,13,15,17,19,21,23,25,27,29,31,33,35,-1,37,39,41,-1,43,-1,45,47,-1,49,-1,-1,-1,-1,-1,-1,-1,51,-1,53,55,57,-1,-1,-1,-1,59,61,63,-1,-1,-1,-1,-1,-1,-1,-1,-1,-1,-1,-1,-1,-1,-1,-1,-1],"loss_changes":[1.6363775E1,6.729825E0,2.348268E0,1.4506817E0,2.7793047E0,1.2734556E0,1.325814E0,4.4613647E-1,1.3898168E0,2.0465436E0,1.24632E0,1.9530358E0,3.4964914E0,1.8190458E0,4.7503823E-1,5.130291E-1,6.140665E-1,1.5337296E0,0E0,1.3893759E0,1.621666E0,1.9151479E0,0E0,2.3825416E-1,0E0,2.671994E0,2.5493932E0,0E0,9.687891E-1,0E0,0E0,0E0,0E0,0E0,0E0,0E0,2.2966158E-1,0E0,2.1651137E-1,1.1970102E0,1.8383453E0,0E0,0E0,0E0,0E0,2.3008401E0,1.2584567E-1,1.31569E0,0E0,0E0,0E0,0E0,0E0,0E0,0E0,0E0,0E0,0E0,0E0,0E0,0E0,0E0,0E0,0E0,0E0],"parents":[2147483647,0,0,1,1,2,2,3,3,4,4,5,5,6,6,7,7,8,8,9,9,10,10,11,11,12,12,13,13,14,14,15,15,16,16,17,17,19,19,20,20,21,21,23,23,25,25,26,26,28,28,36,36,38,38,39,39,40,40,45,45,46,46,47,47],"right_children":[2,4,6,8,10,12,14,16,18,20,22,24,26,28,30,32,34,36,-1,38,40,42,-1,44,-1,46,48,-1,50,-1,-1,-1,-1,-1,-1,-1,52,-1,54,56,58,-1,-1,-1,-1,60,62,64,-1,-1,-1,-1,-1,-1,-1,-1,-1,-1,-1,-1,-1,-1,-1,-1,-1],"split_conditions":[1.6212733E-1,3E0,5.5E1,4.4E1,2.1E1,1.86E2,9.7E1,7.4639666E-1,3.5022536E-1,1.8E1,2E0,7.8292E0,3.06E2,3.00708E1,3.675E1,3.4749776E-1,2.6E1,4.7E1,6.421662E-2,5.3099376E-1,3.98E2,5.36E2,-5.8252923E-2,1.18E2,-7.3221244E-2,2.69E2,7.92E1,7.2011545E-2,1E0,-5.088686E-2,5.8030337E-3,8.4886655E-2,1.3732421E-2,-8.505248E-3,5.197761E-2,3.8648058E-2,4.61E2,8.8160336E-2,1.79E2,1E0,5.36E2,4.705159E-2,-4.9540482E-2,2.1042217E-2,-1.4818678E-2,1.59E1,3E0,6.6335243E-1,4.3444596E-2,2.9952908E-2,-3.396138E-2,-5.1909033E-2,-4.9251574E-3,-1.12147285E-2,2.3594324E-2,5.5965915E-2,-5.0068926E-3,-7.2470926E-2,4.737214E-3,-4.0095434E-2,5.5944502E-2,2.138343E-2,8.9243665E-2,-4.5405317E-2,1.826336E-2],"split_indices":[82,1,7,3,6,0,7,83,83,3,4,6,0,6,6,107,3,7,0,80,0,0,0,0,0,0,6,0,8,0,0,0,0,0,0,0,0,0,0,4,0,0,0,0,0,6,1,208,0,0,0,0,0,0,0,0,0,0,0,0,0,0,0,0,0],"split_type":[0,0,0,0,0,0,0,0,0,0,0,0,0,0,0,0,0,0,0,0,0,0,0,0,0,0,0,0,0,0,0,0,0,0,0,0,0,0,0,0,0,0,0,0,0,0,0,0,0,0,0,0,0,0,0,0,0,0,0,0,0,0,0,0,0],"sum_hessian":[9.9109184E1,4.525596E1,5.3853226E1,2.177441E1,2.348155E1,4.6238434E1,7.614794E0,1.5717842E1,6.0565677E0,1.7250563E1,6.230987E0,9.73568E0,3.6502754E1,5.417851E0,2.1969423E0,1.32939825E1,2.4238598E0,4.047695E0,2.0088725E0,4.607591E0,1.2642972E1,2.6738243E0,3.5571628E0,2.2089643E0,7.526715E0,6.9295325E0,2.9573221E1,1.9954666E0,3.4223845E0,1.1375786E0,1.0593638E0,1.2250112E1,1.0438709E0,1.2372533E0,1.1866065E0,1.7965633E0,2.2511318E0,2.4402966E0,2.1672945E0,6.0524845E0,6.5904875E0,1.5738354E0,1.099989E0,1.1087713E0,1.1001931E0,4.7313967E0,2.1981354E0,2.824256E1,1.3306624E0,1.4406286E0,1.981756E0,1.1235104E0,1.1276214E0,1.1346136E0,1.0326809E0,3.0477166E0,3.004768E0,1.5628326E0,5.027655E0,3.6988206E0,1.0325763E0,1.0538992E0,1.1442363E0,2.6806828E1,1.4357319E0],"tree_param":{"num_deleted":"0","num_feature":"209","num_nodes":"65","size_leaf_vector":"1"}},{"base_weights":[1.3129714E-2,4.297277E-1,-3.381872E-1,8.0948293E-1,6.623473E-2,-4.0858695E-1,1.9606537E-1,9.837217E-1,3.528726E-1,2.6113474E-1,-4.421141E-1,-6.938383E-1,-3.1609693E-1,7.245681E-2,-1.2610474E-1,1.0717012E0,3.5701418E-1,6.822851E-1,-2.7586436E-1,7.224324E-2,1.05184644E-1,5.6924008E-2,-5.639318E-2,2.4086311E-2,-8.3129084E-1,2.6497915E-1,-4.5477322E-1,2.5169486E-1,-4.359952E-2,8.508721E-2,1.325744E-2,-8.135922E-3,5.0703533E-2,2.1813486E-2,6.39168E-2,-3.2068767E-2,2.0791863E-3,2.0892169E-1,-4.348681E-2,4.4903487E-2,-4.8389014E-2,-3.998088E-1,-7.681175E-2,-1.6034502E-1,9.2070025E-1,2.491618E-2,-5.549649E-1,6.291278E-2,-3.61512E-2,3.3863425E-2,-1.8134331E-2,3.8691785E-3,-4.315708E-2,2.709217E-2,-5.976752E-2,2.0443149E-2,8.327365E-2,3.812278E-2,-1.5082569E-2,-4.585571E-2,1.741854E-2],"categories":[],"categories_nodes":[],"categories_segments":[],"categories_sizes":[],"default_left":[0,0,0,0,0,0,0,0,0,0,0,0,0,0,0,0,0,0,0,0,0,0,0,0,0,0,0,0,0,0,0,0,0,0,0,0,0,0,0,0,0,0,0,0,0,0,0,0,0,0,0,0,0,0,0,0,0,0,0,0,0],"id":20,"left_children":[1,3,5,7,9,11,13,15,17,19,21,23,25,-1,27,29,31,33,35,-1,37,39,-1,-1,41,43,45,47,-1,-1,-1,-1,-1,-1,-1,-1,-1,49,-1,-1,-1,51,-1,53,55,57,59,-1,-1,-1,-1,-1,-1,-1,-1,-1,-1,-1,-1,-1,-1],"loss_changes":[1.4471193E1,6.1886272E0,2.0983796E0,1.4052973E0,2.512561E0,1.0401416E0,1.8394138E0,4.6560097E-1,1.7712042E0,1.882465E0,1.1368417E0,1.7809353E0,3.1734154E0,0E0,1.1379366E0,5.294838E-1,5.772675E-1,1.0491204E-1,1.6568378E-1,0E0,1.2543784E0,1.7709489E0,0E0,0E0,4.0908098E-1,2.3596573E0,1.5015316E0,2.0623238E0,0E0,0E0,0E0,0E0,0E0,0E0,0E0,0E0,0E0,1.7038946E0,0E0,0E0,0E0,4.005953E-1,0E0,2.1678994E0,9.907818E-2,7.9110444E-1,1.2816906E0,0E0,0E0,0E0,0E0,0E0,0E0,0E0,0E0,0E0,0E0,0E0,0E0,0E0,0E0],"parents":[2147483647,0,0,1,1,2,2,3,3,4,4,5,5,6,6,7,7,8,8,9,9,10,10,11,11,12,12,14,14,15,15,16,16,17,17,18,18,20,20,21,21,24,24,25,25,26,26,27,27,37,37,41,41,43,43,44,44,45,45,46,46],"right_children":[2,4,6,8,10,12,14,16,18,20,22,24,26,-1,28,30,32,34,36,-1,38,40,-1,-1,42,44,46,48,-1,-1,-1,-1,-1,-1,-1,-1,-1,50,-1,-1,-1,52,-1,54,56,58,60,-1,-1,-1,-1,-1,-1,-1,-1,-1,-1,-1,-1,-1,-1],"split_conditions":[1.6212733E-1,3E0,6.9E1,4.05E1,2.1E1,1.86E2,1E0,7.4639666E-1,1E0,7E0,2E0,1.921332E-1,3.06E2,7.245681E-2,9.7E1,3.4749776E-1,2.6E1,2.9E1,5.41E2,7.224324E-2,5.2358615E-1,5.36E2,-5.639318E-2,2.4086311E-2,8.5E1,2.69E2,1E0,3.00708E1,-4.359952E-2,8.508721E-2,1.325744E-2,-8.135922E-3,5.0703533E-2,2.1813486E-2,6.39168E-2,-3.2068767E-2,2.0791863E-3,5.3099376E-1,-4.348681E-2,4.4903487E-2,-4.8389014E-2,2.5336635E-1,-7.681175E-2,2.28E2,3E0,2.6E1,6.6335243E-1,6.291278E-2,-3.61512E-2,3.3863425E-2,-1.8134331E-2,3.8691785E-3,-4.315708E-2,2.709217E-2,-5.976752E-2,2.0443149E-2,8.327365E-2,3.812278E-2,-1.5082569E-2,-4.585571E-2,1.741854E-2],"split_indices":[82,1,7,3,6,0,8,83,2,3,4,82,0,0,7,107,3,6,0,0,74,0,0,0,0,0,8,6,0,0,0,0,0,0,0,0,0,80,0,0,0,82,0,0,1,3,208,0,0,0,0,0,0,0,0,0,0,0,0,0,0],"split_type":[0,0,0,0,0,0,0,0,0,0,0,0,0,0,0,0,0,0,0,0,0,0,0,0,0,0,0,0,0,0,0,0,0,0,0,0,0,0,0,0,0,0,0,0,0,0,0,0,0,0,0,0,0,0,0,0,0,0,0,0,0],"sum_hessian":[9.68824E1,4.4221066E1,5.266134E1,2.10267E1,2.3194365E1,4.67378E1,5.9235363E0,1.4383627E1,6.643073E0,1.7117758E1,6.076608E0,9.851799E0,3.6886E1,1.1577286E0,4.765808E0,1.1990329E1,2.393298E0,4.3032928E0,2.3397803E0,2.1702745E0,1.4947483E1,2.6400669E0,3.4365416E0,1.015632E0,8.836167E0,6.9314265E0,2.9954575E1,2.8486996E0,1.9171085E0,1.0954032E1,1.0362964E0,1.2416347E0,1.1516633E0,2.123495E0,2.1797976E0,1.2877709E0,1.0520093E0,1.3585167E1,1.3623153E0,1.5732913E0,1.0667754E0,3.6788297E0,5.157337E0,4.6625786E0,2.2688477E0,5.3053536E0,2.4649221E1,1.5028133E0,1.3458861E0,8.83049E0,4.754678E0,1.2282001E0,2.4506297E0,2.8004777E0,1.8621008E0,1.0652447E0,1.203603E0,1.2923712E0,4.0129824E0,2.3208456E1,1.4407659E0],"tree_param":{"num_deleted":"0","num_feature":"209","num_nodes":"61","size_leaf_vector":"1"}},{"base_weights":[1.4557744E-2,4.222232E-1,-3.1077886E-1,7.7100194E-1,9.552148E-2,3.7477703E-3,-4.2337966E-1,2.691225E-1,9.195844E-1,2.6480794E-1,-3.8018912E-1,-5.823286E-1,1.722264E-1,-4.6017897E-1,1.6348815E-2,5.583001E-1,-2.8358039E-2,9.6949244E-1,9.633616E-3,7.0112444E-2,1.1546079E-1,1.597273E-1,-7.165278E-1,-5.6843735E-2,-6.484666E-3,6.6462815E-2,3.2730095E-2,-1.10252965E-2,-5.2655536E-1,-1.7038023E-2,6.619376E-2,1.0185727E0,1.1985158E-2,4.4673008E-1,-1.2098897E-1,4.4028126E-2,-2.5643637E-2,-6.352315E-2,-1.7743755E-2,-2.7719024E-1,4.076835E-1,-4.632725E-2,2.4380116E-1,-8.2404786E-1,-3.6183298E-1,8.069867E-2,2.1555511E-2,3.003495E-3,6.745731E-2,2.3277156E-2,-7.946905E-2,-4.2669922E-2,3.113675E-2,5.551762E-2,-2.0257343E-2,5.6273405E-2,-8.092724E-3,3.467579E-3,-7.262019E-2,-3.915825E-2,-5.799215E-3],"categories":[],"categories_nodes":[],"categories_segments":[],"categories_sizes":[],"default_left":[0,0,0,0,0,0,0,0,0,0,0,0,0,0,0,0,0,0,0,0,0,0,0,0,0,0,0,0,0,0,0,0,0,0,0,0,0,0,0,0,0,0,0,0,0,0,0,0,0,0,0,0,0,0,0,0,0,0,0,0,0],"id":21,"left_children":[1,3,5,7,9,11,13,15,17,19,21,23,25,27,-1,29,-1,31,-1,-1,33,35,37,-1,-1,-1,39,41,43,-1,-1,45,-1,47,49,-1,-1,-1,-1,51,53,-1,55,57,59,-1,-1,-1,-1,-1,-1,-1,-1,-1,-1,-1,-1,-1,-1,-1,-1],"loss_changes":[1.2840168E1,4.82087E0,1.9094152E0,1.2911978E0,1.9787171E0,1.6004109E0,1.0367537E0,1.3578634E0,4.8774242E-1,1.6721722E0,1.3004997E0,2.4969387E-1,1.2230704E0,1.1224804E0,0E0,1.382053E0,0E0,4.108305E-1,0E0,0E0,1.2828482E0,9.13391E-1,6.298661E-2,0E0,0E0,0E0,1.45581E0,1.0617985E0,1.3165598E0,0E0,0E0,2.541933E-1,0E0,1.2061286E0,4.3535547E0,0E0,0E0,0E0,0E0,1.6342673E0,1.4697798E0,0E0,9.4809514E-1,1.4204144E0,1.0080261E0,0E0,0E0,0E0,0E0,0E0,0E0,0E0,0E0,0E0,0E0,0E0,0E0,0E0,0E0,0E0,0E0],"parents":[2147483647,0,0,1,1,2,2,3,3,4,4,5,5,6,6,7,7,8,8,9,9,10,10,11,11,12,12,13,13,15,15,17,17,20,20,21,21,22,22,26,26,27,27,28,28,31,31,33,33,34,34,39,39,40,40,42,42,43,43,44,44],"right_children":[2,4,6,8,10,12,14,16,18,20,22,24,26,28,-1,30,-1,32,-1,-1,34,36,38,-1,-1,-1,40,42,44,-1,-1,46,-1,48,50,-1,-1,-1,-1,52,54,-1,56,58,60,-1,-1,-1,-1,-1,-1,-1,-1,-1,-1,-1,-1,-1,-1,-1,-1],"split_conditions":[1.452127E-1,3E0,2E0,2.54E2,2.1E1,1.58E2,6.317703E-1,4.05E1,5.5E1,7E0,2E0,5.2E1,2.54E2,1E0,1.6348815E-2,2.1075E1,-2.8358039E-2,8.3E2,9.633616E-3,7.0112444E-2,8.05E0,4.21E2,3.13875E1,-5.6843735E-2,-6.484666E-3,6.6462815E-2,5.88E2,7.2292E0,2.7E1,-1.7038023E-2,6.619376E-2,1.465208E2,1.1985158E-2,6.6550136E-1,5.3099376E-1,4.4028126E-2,-2.5643637E-2,-6.352315E-2,-1.7743755E-2,1E0,7.41E2,-4.632725E-2,2.7E1,2.107241E-1,3.874736E-1,8.069867E-2,2.1555511E-2,3.003495E-3,6.745731E-2,2.3277156E-2,-7.946905E-2,-4.2669922E-2,3.113675E-2,5.551762E-2,-2.0257343E-2,5.6273405E-2,-8.092724E-3,3.467579E-3,-7.262019E-2,-3.915825E-2,-5.799215E-3],"split_indices":[82,1,1,0,6,0,107,3,3,3,4,7,0,8,0,6,0,0,0,0,6,0,6,0,0,0,0,6,3,0,0,6,0,80,80,0,0,0,0,4,0,0,3,82,82,0,0,0,0,0,0,0,0,0,0,0,0,0,0,0,0],"split_type":[0,0,0,0,0,0,0,0,0,0,0,0,0,0,0,0,0,0,0,0,0,0,0,0,0,0,0,0,0,0,0,0,0,0,0,0,0,0,0,0,0,0,0,0,0,0,0,0,0,0,0,0,0,0,0,0,0,0,0,0,0],"sum_hessian":[9.482367E1,4.1954483E1,5.2869186E1,1.963388E1,2.2320604E1,1.4192407E1,3.867678E1,5.1270566E0,1.4506824E1,1.6789303E1,5.5313015E0,2.6204417E0,1.1571965E1,3.6845222E1,1.8315558E0,3.6387084E0,1.4883481E0,1.3433915E1,1.0729088E0,2.1015482E0,1.4687754E1,2.324668E0,3.2066336E0,1.5449136E0,1.0755279E0,1.0165579E0,1.0555408E1,4.894098E0,3.1951126E1,1.1507764E0,2.487932E0,1.242291E1,1.0110052E0,5.7469196E0,8.940834E0,1.163405E0,1.161263E0,1.9200375E0,1.2865962E0,5.921601E0,4.633806E0,1.0264395E0,3.8676581E0,9.960172E0,2.1990953E1,1.1081237E1,1.3416729E0,3.6006966E0,2.1462228E0,6.5842495E0,2.356585E0,4.2914987E0,1.630102E0,3.0467725E0,1.5870339E0,1.120539E0,2.7471192E0,1.5125188E0,8.447653E0,1.3532426E1,8.4585285E0],"tree_param":{"num_deleted":"0","num_feature":"209","num_nodes":"61","size_leaf_vector":"1"}},{"base_weights":[1.4716282E-2,3.9384606E-1,-3.0239555E-1,7.607306E-1,5.6782924E-2,-3.6900288E-1,1.9381222E-1,9.39523E-1,3.1588322E-1,2.0749466E-1,-5.0659144E-1,-6.52454E-1,-2.789332E-1,6.891683E-2,-1.1494096E-1,1.0336139E0,3.1385896E-1,6.420697E-1,-2.7934396E-1,2.7906233E-1,-3.8411614E-2,1.7622904E-3,-6.201328E-2,1.0206357E-1,-6.441209E-2,2.7127445E-1,-4.1516522E-1,2.4484831E-1,-4.1561604E-2,8.251783E-2,1.52480025E-2,-1.0007371E-2,4.804378E-2,1.9377392E-2,6.1300386E-2,-3.171122E-2,1.2451279E-3,9.635134E-2,5.7122624E-1,2.2856407E-2,-1.1644552E-2,-1.4540468E-1,8.9266604E-1,-4.6597785E-1,3.0427096E-2,6.1480623E-2,-3.4863524E-2,5.726566E-2,-7.0964415E-3,-1.04998965E-2,5.5213593E-2,-3.6996912E-2,5.1263582E-2,2.1140799E-2,7.910931E-2,-7.935739E-3,-4.387606E-2],"categories":[],"categories_nodes":[],"categories_segments":[],"categories_sizes":[],"default_left":[0,0,0,0,0,0,0,0,0,0,0,0,0,0,0,0,0,0,0,0,0,0,0,0,0,0,0,0,0,0,0,0,0,0,0,0,0,0,0,0,0,0,0,0,0,0,0,0,0,0,0,0,0,0,0,0,0],"id":22,"left_children":[1,3,5,7,9,11,13,15,17,19,21,23,25,-1,27,29,31,33,35,37,-1,-1,-1,39,-1,41,43,45,-1,-1,-1,-1,-1,-1,-1,-1,-1,47,49,-1,-1,51,53,55,-1,-1,-1,-1,-1,-1,-1,-1,-1,-1,-1,-1,-1],"loss_changes":[1.1423801E1,5.3065634E0,1.7824945E0,1.3443012E0,2.111245E0,9.920349E-1,1.623946E0,5.12208E-1,1.6203632E0,1.1395234E0,9.1530585E-1,1.6980405E0,2.8592668E0,0E0,1.0278109E0,4.3557167E-1,5.668435E-1,1.3165474E-1,1.4816684E-1,9.190215E-1,0E0,0E0,0E0,2.0978278E-1,0E0,2.169352E0,1.4305992E0,1.9301871E0,0E0,0E0,0E0,0E0,0E0,0E0,0E0,0E0,0E0,1.655914E0,9.0292835E-1,0E0,0E0,1.9448956E0,2.964902E-2,1.1598334E0,0E0,0E0,0E0,0E0,0E0,0E0,0E0,0E0,0E0,0E0,0E0,0E0,0E0],"parents":[2147483647,0,0,1,1,2,2,3,3,4,4,5,5,6,6,7,7,8,8,9,9,10,10,11,11,12,12,14,14,15,15,16,16,17,17,18,18,19,19,23,23,25,25,26,26,27,27,37,37,38,38,41,41,42,42,43,43],"right_children":[2,4,6,8,10,12,14,16,18,20,22,24,26,-1,28,30,32,34,36,38,-1,-1,-1,40,-1,42,44,46,-1,-1,-1,-1,-1,-1,-1,-1,-1,48,50,-1,-1,52,54,56,-1,-1,-1,-1,-1,-1,-1,-1,-1,-1,-1,-1,-1],"split_conditions":[1.6212733E-1,3E0,6.9E1,4.05E1,2.2525E1,1.86E2,1E0,7.4639666E-1,1E0,5.5635244E-1,2.37E2,7.8292E0,3.06E2,6.891683E-2,9.7E1,2.749298E-1,2.6E1,2.9E1,5.41E2,1.55E1,-3.8411614E-2,1.7622904E-3,-6.201328E-2,1.18E2,-6.441209E-2,2.69E2,5.9E1,3.00708E1,-4.1561604E-2,8.251783E-2,1.52480025E-2,-1.0007371E-2,4.804378E-2,1.9377392E-2,6.1300386E-2,-3.171122E-2,1.2451279E-3,8.2E1,8.8E1,2.2856407E-2,-1.1644552E-2,1.59E1,3E0,2E0,3.0427096E-2,6.1480623E-2,-3.4863524E-2,5.726566E-2,-7.0964415E-3,-1.04998965E-2,5.5213593E-2,-3.6996912E-2,5.1263582E-2,2.1140799E-2,7.910931E-2,-7.935739E-3,-4.387606E-2],"split_indices":[82,1,7,3,6,0,8,83,2,74,0,6,0,0,7,107,3,6,0,6,0,0,0,0,0,0,3,6,0,0,0,0,0,0,0,0,0,0,0,0,0,6,1,8,0,0,0,0,0,0,0,0,0,0,0,0,0],"split_type":[0,0,0,0,0,0,0,0,0,0,0,0,0,0,0,0,0,0,0,0,0,0,0,0,0,0,0,0,0,0,0,0,0,0,0,0,0,0,0,0,0,0,0,0,0,0,0,0,0,0,0,0,0,0,0,0,0],"sum_hessian":[9.3028366E1,4.2260704E1,5.0767662E1,1.9633358E1,2.2627346E1,4.498549E1,5.7821727E0,1.32114315E1,6.4219275E0,1.8350092E1,4.2772527E0,9.342035E0,3.564345E1,1.1366706E0,4.645502E0,1.091756E1,2.2938719E0,4.0976853E0,2.324242E0,1.7247126E1,1.1029668E0,1.9598669E0,2.317386E0,2.1149757E0,7.22706E0,6.877134E0,2.876632E1,2.796903E0,1.8485994E0,9.805656E0,1.1119028E0,1.2180092E0,1.0758626E0,2.060618E0,2.0370677E0,1.2766404E0,1.0476017E0,1.1429332E1,5.817794E0,1.0799847E0,1.034991E0,4.5751987E0,2.301935E0,2.7496565E1,1.2697543E0,1.4595354E0,1.3373674E0,1.876214E0,9.553118E0,1.1237766E0,4.694017E0,3.5078802E0,1.0673184E0,1.0573015E0,1.2446334E0,7.299464E0,2.0197102E1],"tree_param":{"num_deleted":"0","num_feature":"209","num_nodes":"57","size_leaf_vector":"1"}},{"base_weights":[1.6865747E-2,3.8666943E-1,-2.761097E-1,7.231464E-1,8.571461E-2,-6.7239654E-1,-1.8366815E-1,2.2879376E-1,8.7437105E-1,3.6685732E-1,-1.888656E-1,1.52377365E-2,-9.176714E-1,-5.599426E-1,-6.830124E-2,6.186574E-1,-2.4755743E-1,9.2607677E-1,8.40957E-3,6.506517E-1,1.0937312E-1,2.2767387E-1,-3.6164013E-1,-1.1572126E-2,-7.6486036E-2,4.305246E-2,-7.7700186E-1,4.1874555E-1,-2.2280015E-1,1.1672912E-2,5.6297943E-2,1.3124615E-2,-3.9843764E-2,9.7540355E-1,1.5036667E-2,7.834283E-2,8.868886E-2,-4.4193086E-1,5.8695287E-1,-2.3548575E-2,4.0453006E-2,-5.267789E-1,2.0483311E-2,-6.772285E-2,-2.948961E-3,-1.1871525E-2,6.420839E-1,2.4508777E-1,-4.8590282E-1,7.775441E-2,1.862365E-2,-1.6244218E-2,2.6683649E-2,-5.2934762E-2,-9.1775437E-4,6.951176E-2,-1.7449675E-3,9.5664064E-4,-6.918022E-2,2.7884036E-2,-2.0421522E-2,-1.265638E-2,6.500154E-2,6.1451927E-2,-4.8069395E-3,-4.633438E-2,4.048552E-2],"categories":[],"categories_nodes":[],"categories_segments":[],"categories_sizes":[],"default_left":[0,0,0,0,0,0,0,0,0,0,0,0,0,0,0,0,0,0,0,0,0,0,0,0,0,0,0,0,0,0,0,0,0,0,0,0,0,0,0,0,0,0,0,0,0,0,0,0,0,0,0,0,0,0,0,0,0,0,0,0,0,0,0,0,0,0,0],"id":23,"left_children":[1,3,5,7,9,11,13,15,17,19,21,-1,23,25,27,29,31,33,-1,35,37,39,41,-1,-1,-1,43,45,47,-1,-1,-1,-1,49,-1,-1,51,53,55,-1,-1,57,-1,-1,-1,59,61,63,65,-1,-1,-1,-1,-1,-1,-1,-1,-1,-1,-1,-1,-1,-1,-1,-1,-1,-1],"loss_changes":[1.0096584E1,4.10758E0,1.7825406E0,1.2432165E0,1.8347083E0,2.2192092E0,1.8528775E0,1.2445318E0,4.648447E-1,7.7936137E-1,9.6248376E-1,0E0,4.3332958E-1,2.9280486E0,2.6879144E0,9.812808E-2,4.9564892E-1,2.8313446E-1,0E0,1.0883088E0,2.1826527E0,8.7831676E-1,1.0904771E0,0E0,0E0,0E0,7.904725E-1,8.396226E-1,3.4218993E0,0E0,0E0,0E0,0E0,2.8940105E-1,0E0,0E0,3.454197E-1,4.4048023E-1,9.224005E-1,0E0,0E0,1.6142974E0,0E0,0E0,0E0,4.945157E-1,1.1869965E0,1.8851221E0,2.702005E0,0E0,0E0,0E0,0E0,0E0,0E0,0E0,0E0,0E0,0E0,0E0,0E0,0E0,0E0,0E0,0E0,0E0,0E0],"parents":[2147483647,0,0,1,1,2,2,3,3,4,4,5,5,6,6,7,7,8,8,9,9,10,10,12,12,13,13,14,14,15,15,16,16,17,17,19,19,20,20,21,21,22,22,26,26,27,27,28,28,33,33,36,36,37,37,38,38,41,41,45,45,46,46,47,47,48,48],"right_children":[2,4,6,8,10,12,14,16,18,20,22,-1,24,26,28,30,32,34,-1,36,38,40,42,-1,-1,-1,44,46,48,-1,-1,-1,-1,50,-1,-1,52,54,56,-1,-1,58,-1,-1,-1,60,62,64,66,-1,-1,-1,-1,-1,-1,-1,-1,-1,-1,-1,-1,-1,-1,-1,-1,-1,-1],"split_conditions":[1.452127E-1,3E0,7.75E0,2.54E2,1E0,2.5234398E-1,1.86E2,1.35E2,5.5E1,3.98E2,2E0,1.52377365E-2,4.0125E0,1.921332E-1,2E0,2.625E1,4.05E1,8.13E2,8.40957E-3,5.3099376E-1,6.57E2,1.5E1,3.2E1,-1.1572126E-2,-7.6486036E-2,4.305246E-2,5.2E1,3.4256083E-1,4.46E2,1.1672912E-2,5.6297943E-2,1.3124615E-2,-3.9843764E-2,1.465208E2,1.5036667E-2,7.834283E-2,2.7E1,4.0898168E-1,4.1996583E-1,-2.3548575E-2,4.0453006E-2,1.8E1,2.0483311E-2,-6.772285E-2,-2.948961E-3,7.775E0,8.85E0,8.1375E0,8.7E1,7.775441E-2,1.862365E-2,-1.6244218E-2,2.6683649E-2,-5.2934762E-2,-9.1775437E-4,6.951176E-2,-1.7449675E-3,9.5664064E-4,-6.918022E-2,2.7884036E-2,-2.0421522E-2,-1.265638E-2,6.500154E-2,6.1451927E-2,-4.8069395E-3,-4.633438E-2,4.048552E-2],"split_indices":[82,1,6,0,4,82,0,0,3,0,8,0,6,82,8,6,3,0,0,80,0,3,3,0,0,0,7,82,0,0,0,0,0,6,0,0,3,80,80,0,0,3,0,0,0,6,6,6,7,0,0,0,0,0,0,0,0,0,0,0,0,0,0,0,0,0,0],"split_type":[0,0,0,0,0,0,0,0,0,0,0,0,0,0,0,0,0,0,0,0,0,0,0,0,0,0,0,0,0,0,0,0,0,0,0,0,0,0,0,0,0,0,0,0,0,0,0,0,0,0,0,0,0,0,0,0,0,0,0,0,0,0,0,0,0,0,0],"sum_hessian":[9.120518E1,4.017505E1,5.103013E1,1.8305775E1,2.1869274E1,8.465538E0,4.256459E1,4.876725E0,1.34290495E1,1.06394615E1,1.1229812E1,1.8900881E0,6.57545E0,9.0837965E0,3.3480797E1,2.5175366E0,2.3591888E0,1.2374694E1,1.0543553E0,4.334784E0,6.3046775E0,3.1991875E0,8.030624E0,1.0722699E0,5.5031796E0,1.195194E0,7.8886023E0,7.6510525E0,2.5829742E1,1.0418307E0,1.475706E0,1.1015761E0,1.2576126E0,1.1264611E1,1.110083E0,2.0435357E0,2.2912486E0,2.9611073E0,3.3435702E0,1.165874E0,2.0333138E0,6.50767E0,1.5229541E0,6.5466127E0,1.3419893E0,2.936347E0,4.7147055E0,9.321446E0,1.6508297E1,9.995723E0,1.2688884E0,1.1574304E0,1.1338181E0,1.436455E0,1.5246524E0,1.8142564E0,1.5293138E0,3.1625235E0,3.3451464E0,1.0143218E0,1.9220252E0,1.0766351E0,3.63807E0,2.6847298E0,6.6367164E0,1.4979837E1,1.5284594E0],"tree_param":{"num_deleted":"0","num_feature":"209","num_nodes":"67","size_leaf_vector":"1"}},{"base_weights":[1.8400144E-2,3.7050492E-1,-2.601699E-1,6.9893944E-1,8.309374E-2,-6.493395E-1,-1.7085329E-1,2.2148097E-1,8.478722E-1,3.5125336E-1,-1.7846836E-1,1.4404529E-2,-8.95789E-1,-5.364482E-1,-6.0927622E-2,6.0171396E-1,-2.3776618E-1,8.999971E-1,8.0924975E-3,6.256484E-1,1.0370172E-1,-5.872028E-4,-6.1656445E-1,-1.116731E-2,-7.496884E-2,4.0863596E-2,-7.531318E-1,3.9228162E-1,-2.073331E-1,1.1267694E-2,5.4923918E-2,1.2665092E-2,-3.822527E-2,9.4960517E-1,1.4511243E-2,7.565456E-2,8.548167E-2,-4.2325372E-1,5.6249565E-1,-4.55719E-2,2.3499116E-1,-4.697974E-4,-6.849616E-2,-6.602833E-2,-2.8226608E-3,-9.196563E-3,5.987471E-1,2.3028646E-1,-4.6141407E-1,7.5860575E-2,1.7965166E-2,-1.559117E-2,2.573331E-2,-5.0756898E-2,-8.7625074E-4,6.6854335E-2,-1.6660726E-3,7.953905E-2,-1.9094992E-2,2.6587198E-2,-1.954073E-2,-1.2214168E-2,6.0539998E-2,2.9088017E-2,-4.644714E-2,-4.4259124E-2,3.8808655E-2],"categories":[],"categories_nodes":[],"categories_segments":[],"categories_sizes":[],"default_left":[0,0,0,0,0,0,0,0,0,0,0,0,0,0,0,0,0,0,0,0,0,0,0,0,0,0,0,0,0,0,0,0,0,0,0,0,0,0,0,0,0,0,0,0,0,0,0,0,0,0,0,0,0,0,0,0,0,0,0,0,0,0,0,0,0,0,0],"id":24,"left_children":[1,3,5,7,9,11,13,15,17,19,21,-1,23,25,27,29,31,33,-1,35,37,39,41,-1,-1,-1,43,45,47,-1,-1,-1,-1,49,-1,-1,51,53,55,-1,57,-1,-1,-1,-1,59,61,63,65,-1,-1,-1,-1,-1,-1,-1,-1,-1,-1,-1,-1,-1,-1,-1,-1,-1,-1],"loss_changes":[8.983882E0,3.7587943E0,1.6678488E0,1.144496E0,1.6548088E0,2.0788312E0,1.6945697E0,1.1573086E0,4.4008732E-1,7.193413E-1,9.467856E-1,0E0,4.1621876E-1,2.7081861E0,2.3487093E0,9.4040275E-2,4.561903E-1,2.6751137E-1,0E0,1.0057201E0,1.995244E0,1.5220871E0,6.2968755E-1,0E0,0E0,0E0,7.489214E-1,7.257793E-1,3.0508583E0,0E0,0E0,0E0,0E0,2.7497005E-1,0E0,0E0,3.1938836E-1,4.0457112E-1,8.495561E-1,0E0,3.3698683E0,0E0,0E0,0E0,0E0,4.5215237E-1,1.0448678E0,1.6315818E0,2.4581747E0,0E0,0E0,0E0,0E0,0E0,0E0,0E0,0E0,0E0,0E0,0E0,0E0,0E0,0E0,0E0,0E0,0E0,0E0],"parents":[2147483647,0,0,1,1,2,2,3,3,4,4,5,5,6,6,7,7,8,8,9,9,10,10,12,12,13,13,14,14,15,15,16,16,17,17,19,19,20,20,21,21,22,22,26,26,27,27,28,28,33,33,36,36,37,37,38,38,40,40,45,45,46,46,47,47,48,48],"right_children":[2,4,6,8,10,12,14,16,18,20,22,-1,24,26,28,30,32,34,-1,36,38,40,42,-1,-1,-1,44,46,48,-1,-1,-1,-1,50,-1,-1,52,54,56,-1,58,-1,-1,-1,-1,60,62,64,66,-1,-1,-1,-1,-1,-1,-1,-1,-1,-1,-1,-1,-1,-1,-1,-1,-1,-1],"split_conditions":[1.452127E-1,3E0,7.75E0,2.54E2,1E0,2.5234398E-1,1.86E2,1.35E2,5.5E1,3.98E2,6.18E2,1.4404529E-2,4.0125E0,1.921332E-1,2E0,2.625E1,4.05E1,8.13E2,8.0924975E-3,5.3099376E-1,6.57E2,1.505E1,1.6E1,-1.116731E-2,-7.496884E-2,4.0863596E-2,5.2E1,3.4256083E-1,4.46E2,1.1267694E-2,5.4923918E-2,1.2665092E-2,-3.822527E-2,1.465208E2,1.4511243E-2,7.565456E-2,2.7E1,4.0898168E-1,4.1996583E-1,-4.55719E-2,1.78E1,-4.697974E-4,-6.849616E-2,-6.602833E-2,-2.8226608E-3,7.775E0,8.85E0,4.55E1,8.7E1,7.5860575E-2,1.7965166E-2,-1.559117E-2,2.573331E-2,-5.0756898E-2,-8.7625074E-4,6.6854335E-2,-1.6660726E-3,7.953905E-2,-1.9094992E-2,2.6587198E-2,-1.954073E-2,-1.2214168E-2,6.0539998E-2,2.9088017E-2,-4.644714E-2,-4.4259124E-2,3.8808655E-2],"split_indices":[82,1,6,0,4,82,0,0,3,0,0,0,6,82,8,6,3,0,0,80,0,6,3,0,0,0,7,82,0,0,0,0,0,6,0,0,3,80,80,0,6,0,0,0,0,6,6,3,7,0,0,0,0,0,0,0,0,0,0,0,0,0,0,0,0,0,0],"split_type":[0,0,0,0,0,0,0,0,0,0,0,0,0,0,0,0,0,0,0,0,0,0,0,0,0,0,0,0,0,0,0,0,0,0,0,0,0,0,0,0,0,0,0,0,0,0,0,0,0,0,0,0,0,0,0,0,0,0,0,0,0,0,0,0,0,0,0],"sum_hessian":[8.960928E1,3.9434788E1,5.0174496E1,1.7735725E1,2.1699062E1,8.1954155E0,4.197908E1,4.8082466E0,1.2927478E1,1.0545086E1,1.1153976E1,1.9066477E0,6.288768E0,8.807308E0,3.3171772E1,2.4606977E0,2.347549E0,1.18747425E1,1.0527353E0,4.2769823E0,6.268104E0,8.64512E0,2.5088573E0,1.0643616E0,5.2244062E0,1.2174577E0,7.5898504E0,7.689359E0,2.5482414E1,1.0345948E0,1.4261028E0,1.0925611E0,1.254988E0,1.077416E1,1.1005821E0,1.9948348E0,2.2821474E0,2.953396E0,3.3147078E0,1.9754612E0,6.669658E0,1.1547772E0,1.35408E0,6.248208E0,1.341642E0,2.9358904E0,4.753469E0,9.394804E0,1.608761E1,9.520185E0,1.2539753E0,1.157355E0,1.1247925E0,1.4289242E0,1.5244719E0,1.7857399E0,1.528968E0,2.048843E0,4.6208153E0,1.0320911E0,1.9037992E0,1.0684664E0,3.6850026E0,8.3835745E0,1.0112296E0,1.45691E1,1.5185089E0],"tree_param":{"num_deleted":"0","num_feature":"209","num_nodes":"67","size_leaf_vector":"1"}},{"base_weights":[1.8712314E-2,3.46219E-1,-2.5387838E-1,6.9446474E-1,4.68239E-2,-6.2716484E-1,-1.6683376E-1,8.681857E-1,2.3119488E-1,1.8377268E-1,-4.733534E-1,8.488854E-4,-7.305678E-2,-5.641742E-1,-5.2327264E-2,9.6570605E-1,1.8279701E-2,-9.984478E-2,5.6379125E-2,6.614522E-1,6.594708E-2,2.491255E-3,-5.9624057E-2,-5.361325E-2,4.1377757E-2,2.2010608E-2,-7.1521467E-1,3.6765853E-1,-1.9450203E-1,7.753368E-2,1.1271256E-2,3.281148E-2,-5.3977406E-1,1.3477963E-2,6.25505E-2,1.5550783E-1,-4.061841E-2,-6.342441E-2,-2.7017696E-3,5.719145E-1,-3.0489985E-2,2.2316715E-1,-4.5314866E-1,-5.0033532E-2,-1.1000267E-2,2.5736542E-2,-1.6598726E-2,6.0127698E-2,3.2486487E-3,-4.8524566E-2,3.388746E-2,5.507758E-2,-4.711424E-3,-4.680119E-2,3.0345103E-2],"categories":[],"categories_nodes":[],"categories_segments":[],"categories_sizes":[],"default_left":[0,0,0,0,0,0,0,0,0,0,0,0,0,0,0,0,0,0,0,0,0,0,0,0,0,0,0,0,0,0,0,0,0,0,0,0,0,0,0,0,0,0,0,0,0,0,0,0,0,0,0,0,0,0,0],"id":25,"left_children":[1,3,5,7,9,11,13,15,17,19,21,23,-1,25,27,29,-1,31,-1,33,35,-1,-1,-1,-1,-1,37,39,41,-1,-1,-1,43,-1,-1,45,-1,-1,-1,47,49,51,53,-1,-1,-1,-1,-1,-1,-1,-1,-1,-1,-1,-1],"loss_changes":[8.038449E0,4.229392E0,1.493356E0,1.3142538E0,1.729172E0,1.9479904E0,1.8469542E0,5.762415E-1,1.1945412E0,1.0239704E0,8.547218E-1,2.0420535E0,0E0,1.3918612E0,2.0490706E0,4.6579647E-1,0E0,1.3835543E0,0E0,1.5289867E-1,9.7252595E-1,0E0,0E0,0E0,0E0,0E0,6.826501E-1,7.267437E-1,2.8447008E0,0E0,0E0,0E0,5.8160424E-2,0E0,0E0,1.13697E0,0E0,0E0,0E0,6.716261E-1,1.4540119E0,1.5640302E0,2.5995255E0,0E0,0E0,0E0,0E0,0E0,0E0,0E0,0E0,0E0,0E0,0E0,0E0],"parents":[2147483647,0,0,1,1,2,2,3,3,4,4,5,5,6,6,7,7,8,8,9,9,10,10,11,11,13,13,14,14,15,15,17,17,19,19,20,20,26,26,27,27,28,28,32,32,35,35,39,39,40,40,41,41,42,42],"right_children":[2,4,6,8,10,12,14,16,18,20,22,24,-1,26,28,30,-1,32,-1,34,36,-1,-1,-1,-1,-1,38,40,42,-1,-1,-1,44,-1,-1,46,-1,-1,-1,48,50,52,54,-1,-1,-1,-1,-1,-1,-1,-1,-1,-1,-1,-1],"split_conditions":[1.6212733E-1,3E0,7.75E0,4.4E1,2.2525E1,2.6683685E-1,1.86E2,7.4639666E-1,3.5022536E-1,7E0,2.37E2,2.345679E-1,-7.305678E-2,2.0252213E-1,2E0,2.749298E-1,1.8279701E-2,4.7E1,5.6379125E-2,4.1996583E-1,5.2358615E-1,2.491255E-3,-5.9624057E-2,-5.361325E-2,4.1377757E-2,2.2010608E-2,5.2E1,3E1,4.46E2,7.753368E-2,1.1271256E-2,3.281148E-2,4.61E2,1.3477963E-2,6.25505E-2,5.3099376E-1,-4.061841E-2,-6.342441E-2,-2.7017696E-3,2.345E1,3E1,8.1375E0,4.8E1,-5.0033532E-2,-1.1000267E-2,2.5736542E-2,-1.6598726E-2,6.0127698E-2,3.2486487E-3,-4.8524566E-2,3.388746E-2,5.507758E-2,-4.711424E-3,-4.680119E-2,3.0345103E-2],"split_indices":[82,1,6,3,6,82,0,83,83,3,0,82,0,82,8,107,0,7,0,80,74,0,0,0,0,0,7,3,0,0,0,0,0,0,0,80,0,0,0,6,6,6,3,0,0,0,0,0,0,0,0,0,0,0,0],"split_type":[0,0,0,0,0,0,0,0,0,0,0,0,0,0,0,0,0,0,0,0,0,0,0,0,0,0,0,0,0,0,0,0,0,0,0,0,0,0,0,0,0,0,0,0,0,0,0,0,0,0,0,0,0,0,0],"sum_hessian":[8.805659E1,3.9876495E1,4.8180096E1,1.7824318E1,2.2052176E1,7.9371104E0,4.0242985E1,1.2327579E1,5.49674E0,1.7968311E1,4.0838647E0,3.1793394E0,4.757771E0,8.124335E0,3.2118652E1,1.0189782E1,2.1377969E0,3.8539355E0,1.6428043E0,2.6422956E0,1.53260145E1,1.9342175E0,2.149647E0,1.2533014E0,1.926038E0,1.0753251E0,7.04901E0,7.721954E0,2.4396698E1,9.157474E0,1.0323081E0,1.7374098E0,2.1165257E0,1.2352132E0,1.4070823E0,1.4005388E1,1.3206271E0,5.7077026E0,1.3413073E0,4.815234E0,2.9067197E0,9.382604E0,1.5014094E1,1.0721711E0,1.0443546E0,9.4092455E0,4.5961423E0,2.9961278E0,1.8191063E0,1.1260241E0,1.7806957E0,2.8035002E0,6.5791035E0,1.2747281E1,2.2668126E0],"tree_param":{"num_deleted":"0","num_feature":"209","num_nodes":"55","size_leaf_vector":"1"}},{"base_weights":[1.8286567E-2,3.3904234E-1,-2.330735E-1,6.531687E-1,7.583059E-2,-6.064927E-1,-1.5014641E-1,7.7151954E-1,7.891824E-2,3.3121383E-1,-1.7478639E-1,1.4712843E-2,-8.593034E-1,-4.9361673E-1,-5.0970286E-2,3.2309273E-1,8.846932E-1,-2.446477E-2,2.857521E-2,6.0804322E-2,1.7929493E-1,-3.1428246E-3,-5.990325E-1,-9.720464E-3,-7.250064E-2,3.7404317E-2,-7.091082E-1,3.4233582E-1,-1.8243602E-1,-2.1557415E-2,6.004064E-1,9.446076E-1,1.2441183E-2,4.2562276E-1,-1.7377746E-1,-4.390757E-2,2.2473109E-1,-2.8124818E-4,-6.679493E-2,-6.290633E-2,-2.5860516E-3,6.3264325E-2,1.5160312E-1,1.9665879E-1,-4.1558275E-1,5.2498505E-2,1.3788364E-2,7.668362E-2,1.5081867E-2,-8.9545484E-4,6.421445E-2,2.7926585E-2,-6.4169414E-2,7.606165E-2,-1.8015724E-2,-2.4819914E-2,3.031367E-2,5.0897237E-2,-5.493775E-3,-4.0757038E-2,3.7792455E-2],"categories":[],"categories_nodes":[],"categories_segments":[],"categories_sizes":[],"default_left":[0,0,0,0,0,0,0,0,0,0,0,0,0,0,0,0,0,0,0,0,0,0,0,0,0,0,0,0,0,0,0,0,0,0,0,0,0,0,0,0,0,0,0,0,0,0,0,0,0,0,0,0,0,0,0,0,0,0,0,0,0],"id":26,"left_children":[1,3,5,7,9,11,13,15,17,19,21,-1,23,25,27,29,31,-1,-1,-1,33,35,37,-1,-1,-1,39,41,43,-1,45,47,-1,49,51,-1,53,-1,-1,-1,-1,-1,55,57,59,-1,-1,-1,-1,-1,-1,-1,-1,-1,-1,-1,-1,-1,-1,-1,-1],"loss_changes":[7.144812E0,3.167705E0,1.4487939E0,1.1358352E0,1.4853357E0,1.9354639E0,1.4061834E0,4.4930744E-1,6.2883264E-1,6.844895E-1,8.6546063E-1,0E0,4.0807486E-1,2.3422337E0,1.8059802E0,9.3351614E-1,3.166628E-1,0E0,0E0,0E0,9.380144E-1,1.3901618E0,5.9122646E-1,0E0,0E0,0E0,6.754136E-1,7.1287215E-1,2.3730738E0,0E0,1.2934923E-2,3.6924362E-1,0E0,1.1673785E0,2.1032665E0,0E0,3.0110586E0,0E0,0E0,0E0,0E0,0E0,1.0587889E0,1.4222887E0,2.1985552E0,0E0,0E0,0E0,0E0,0E0,0E0,0E0,0E0,0E0,0E0,0E0,0E0,0E0,0E0,0E0,0E0],"parents":[2147483647,0,0,1,1,2,2,3,3,4,4,5,5,6,6,7,7,8,8,9,9,10,10,12,12,13,13,14,14,15,15,16,16,20,20,21,21,22,22,26,26,27,27,28,28,30,30,31,31,33,33,34,34,36,36,42,42,43,43,44,44],"right_children":[2,4,6,8,10,12,14,16,18,20,22,-1,24,26,28,30,32,-1,-1,-1,34,36,38,-1,-1,-1,40,42,44,-1,46,48,-1,50,52,-1,54,-1,-1,-1,-1,-1,56,58,60,-1,-1,-1,-1,-1,-1,-1,-1,-1,-1,-1,-1,-1,-1,-1,-1],"split_conditions":[1.452127E-1,3E0,7.75E0,1E0,1E0,2.5234398E-1,1.86E2,2.04E2,2.7E1,1E1,6.18E2,1.4712843E-2,4.0125E0,1.921332E-1,2E0,2.1075E1,8.13E2,-2.446477E-2,2.857521E-2,6.0804322E-2,8.05E0,1.505E1,1.6E1,-9.720464E-3,-7.250064E-2,3.7404317E-2,5.2E1,2.7E1,4.46E2,-2.1557415E-2,3.6E1,1.465208E2,1.2441183E-2,6.6550136E-1,5.3099376E-1,-4.390757E-2,1.78E1,-2.8124818E-4,-6.679493E-2,-6.290633E-2,-2.5860516E-3,6.3264325E-2,4.54E2,8.1375E0,8.7E1,5.2498505E-2,1.3788364E-2,7.668362E-2,1.5081867E-2,-8.9545484E-4,6.421445E-2,2.7926585E-2,-6.4169414E-2,7.606165E-2,-1.8015724E-2,-2.4819914E-2,3.031367E-2,5.0897237E-2,-5.493775E-3,-4.0757038E-2,3.7792455E-2],"split_indices":[82,1,6,2,4,82,0,0,6,3,0,0,6,82,8,6,0,0,0,0,6,6,3,0,0,0,7,3,0,0,3,6,0,80,80,0,6,0,0,0,0,0,0,6,7,0,0,0,0,0,0,0,0,0,0,0,0,0,0,0,0],"split_type":[0,0,0,0,0,0,0,0,0,0,0,0,0,0,0,0,0,0,0,0,0,0,0,0,0,0,0,0,0,0,0,0,0,0,0,0,0,0,0,0,0,0,0,0,0,0,0,0,0,0,0,0,0,0,0,0,0,0,0,0,0],"sum_hessian":[8.66375E1,3.791107E1,4.8726425E1,1.6608437E1,2.1302637E1,7.707251E0,4.1019173E1,1.3485584E1,3.1228528E0,1.0391706E1,1.0910931E1,1.8997285E0,5.807523E0,8.299359E0,3.2719814E1,3.4944415E0,9.991142E0,1.2998495E0,1.8230033E0,1.4568396E0,8.934867E0,8.485311E0,2.4256203E0,1.0280415E0,4.7794814E0,1.2462063E0,7.0531526E0,7.7951293E0,2.4924686E1,1.0800812E0,2.4143603E0,8.932476E0,1.058666E0,5.141981E0,3.792886E0,1.9453071E0,6.540003E0,1.1304588E0,1.2951614E0,5.7121677E0,1.3409851E0,1.2053317E0,6.5897975E0,9.5511265E0,1.5373559E1,1.3994613E0,1.014899E0,7.7463393E0,1.1861368E0,3.032503E0,2.109478E0,2.3580062E0,1.4348799E0,1.9862634E0,4.5537395E0,2.1576128E0,4.4321847E0,2.885055E0,6.666072E0,1.38560095E1,1.5175486E0],"tree_param":{"num_deleted":"0","num_feature":"209","num_nodes":"61","size_leaf_vector":"1"}},{"base_weights":[1.9472664E-2,3.251601E-1,-2.1910667E-1,6.323943E-1,7.251307E-2,-5.8566535E-1,-1.3902858E-1,7.507293E-1,7.441908E-2,3.1724465E-1,-1.6775858E-1,1.3910331E-2,-8.3929497E-1,-4.7270617E-1,-4.450945E-2,3.1213012E-1,8.647227E-1,-2.3506565E-2,2.7336702E-2,5.824749E-1,8.136424E-2,-1.2813493E-3,-5.7933784E-1,-9.381801E-3,-7.114016E-2,3.554386E-2,-6.870847E-1,3.2300538E-1,-1.6942453E-1,-2.0584282E-2,5.8477646E-1,9.2587644E-1,1.200827E-2,7.17036E-2,6.680232E-2,-4.2498434E-1,5.334717E-1,-4.192062E-2,2.179324E-1,-2.7005165E-4,-6.4895704E-2,-6.1337464E-2,-2.475294E-3,6.0190152E-2,1.4048457E-1,1.8502861E-1,-3.936127E-1,5.1290493E-2,1.3315442E-2,7.5442985E-2,1.45492535E-2,-1.5689434E-2,2.3668298E-2,-5.170424E-2,-2.6134434E-3,6.302649E-2,-1.1851706E-3,5.6413893E-2,-3.1734027E-2,-2.3752248E-2,2.8218044E-2,4.710677E-2,-5.1487153E-3,-3.8850613E-2,3.6234405E-2],"categories":[],"categories_nodes":[],"categories_segments":[],"categories_sizes":[],"default_left":[0,0,0,0,0,0,0,0,0,0,0,0,0,0,0,0,0,0,0,0,0,0,0,0,0,0,0,0,0,0,0,0,0,0,0,0,0,0,0,0,0,0,0,0,0,0,0,0,0,0,0,0,0,0,0,0,0,0,0,0,0,0,0,0,0],"id":27,"left_children":[1,3,5,7,9,11,13,15,17,19,21,-1,23,25,27,29,31,-1,-1,33,35,37,39,-1,-1,-1,41,43,45,-1,47,49,-1,-1,51,53,55,-1,57,-1,-1,-1,-1,-1,59,61,63,-1,-1,-1,-1,-1,-1,-1,-1,-1,-1,-1,-1,-1,-1,-1,-1,-1,-1],"loss_changes":[6.3544893E0,2.9168143E0,1.3564663E0,1.0728035E0,1.3512276E0,1.8125305E0,1.2882732E0,4.2970228E-1,5.7560134E-1,6.584066E-1,8.0727583E-1,0E0,3.9282513E-1,2.1641803E0,1.5905547E0,8.724143E-1,3.0598497E-1,0E0,0E0,9.2785144E-1,1.8597432E0,1.2707692E0,5.556251E-1,0E0,0E0,0E0,6.396451E-1,6.6013545E-1,2.1090157E0,0E0,1.4114618E-2,3.60754E-1,0E0,0E0,2.8832585E-1,3.8049775E-1,7.232624E-1,0E0,2.8752816E0,0E0,0E0,0E0,0E0,0E0,9.39189E-1,1.2353989E0,1.9970024E0,0E0,0E0,0E0,0E0,0E0,0E0,0E0,0E0,0E0,0E0,0E0,0E0,0E0,0E0,0E0,0E0,0E0,0E0],"parents":[2147483647,0,0,1,1,2,2,3,3,4,4,5,5,6,6,7,7,8,8,9,9,10,10,12,12,13,13,14,14,15,15,16,16,19,19,20,20,21,21,22,22,26,26,27,27,28,28,30,30,31,31,34,34,35,35,36,36,38,38,44,44,45,45,46,46],"right_children":[2,4,6,8,10,12,14,16,18,20,22,-1,24,26,28,30,32,-1,-1,34,36,38,40,-1,-1,-1,42,44,46,-1,48,50,-1,-1,52,54,56,-1,58,-1,-1,-1,-1,-1,60,62,64,-1,-1,-1,-1,-1,-1,-1,-1,-1,-1,-1,-1,-1,-1,-1,-1,-1,-1],"split_conditions":[1.452127E-1,3E0,7.75E0,1E0,1E0,2.5234398E-1,1.86E2,2.04E2,2.7E1,3.98E2,6.18E2,1.3910331E-2,4.0125E0,1.921332E-1,2E0,2.1075E1,8.13E2,-2.3506565E-2,2.7336702E-2,5.3099376E-1,6.57E2,1.505E1,1.6E1,-9.381801E-3,-7.114016E-2,3.554386E-2,5.2E1,2.7E1,4.46E2,-2.0584282E-2,3.6E1,1.465208E2,1.200827E-2,7.17036E-2,2.7E1,5.08E2,4.1996583E-1,-4.192062E-2,2E0,-2.7005165E-4,-6.4895704E-2,-6.1337464E-2,-2.475294E-3,6.0190152E-2,4.54E2,8.1375E0,8.7E1,5.1290493E-2,1.3315442E-2,7.5442985E-2,1.45492535E-2,-1.5689434E-2,